3315 100
the 0.089221 0.00546118 -0.114508 -0.0136519 0.0154721 0.101454 -0.098473 0.0274222 0.0406869 0.180794 -0.0918262 0.070509 0.0146152 0.118859 0.146615 0.108314 0.136564 -0.0843744 -0.0941724 -0.124919 -0.165422 -0.120945 -0.0840603 -0.173538 0.0681563 0.129289 -0.0999907 0.14821 0.00354878 -0.0359573 0.0585582 0.0239309 0.0832394 0.0759349 0.0939499 -0.153144 -0.0378478 -0.133742 0.244714 -0.0108228 -0.0611515 0.0471433 0.124645 0.0368079 0.114133 -0.181383 0.115472 -0.149278 0.230488 0.0585556 -0.131795 0.178553 0.00690614 0.157136 -0.112663 0.119773 0.143373 0.0816665 -0.0864759 0.222546 0.0578486 0.157673 -0.0496279 0.0337121 -0.129373 -0.0448496 0.126091 0.159156 0.165425 -0.166442 -0.0270067 0.0891497 -0.0383442 -0.0582152 -0.178177 -0.0244919 -0.138048 -0.189369 -0.117988 -0.0861543 -0.0518795 0.159867 -0.0709679 0.0679948 -0.103461 -0.0909042 0.0900598 0.10993 -0.173491 0.120498 0.0230465 0.0593812 -0.0678567 -0.122264 -0.0247444 -0.0769449 -0.104874 0.0383545 0.11836 0.0185934
and -0.0748737 0.0164718 0.0578289 0.141735 0.0786046 -0.0996458 -0.0243906 -0.0545395 0.0191109 0.00834626 0.0456049 0.0115153 -0.0353753 0.0386455 0.011594 -0.0986364 0.0327208 0.0391475 -0.00283794 0.03496 0.00583438 -0.0232889 0.104331 -0.0235182 -0.0711345 -0.0386451 -0.041967 -0.116379 0.022279 0.0475936 0.0427069 0.062738 -0.00517273 0.00578409 0.0416397 -0.0218389 0.130895 -0.0271306 -0.0709702 -0.124716 0.0916367 0.019779 -0.107282 -0.138089 0.00434388 -0.00420339 -0.0690334 0.110934 0.0503649 0.00549751 0.0835886 -0.0153679 -0.0281493 -0.158163 -0.066282 -0.0678795 0.0126666 0.0265885 0.0148148 -0.255179 -0.169026 -0.132016 0.0925258 -0.0869332 -0.00628255 -0.0098029 -0.0364275 -0.0538745 -0.0957118 -0.00054334 -0.0692525 -0.0839225 -0.0270466 -0.057037 0.0373858 0.13665 0.0736962 0.296431 -0.0352551 0.00977993 0.00781265 0.0170334 -0.149257 0.0360731 0.0473795 0.0652507 -0.0523576 0.0780802 0.118931 -0.0138014 0.0296187 -0.0624127 -0.00750826 0.0188026 0.0828522 0.0237497 -0.0364576 -0.065177 0.0340482 0.0940069
of -0.100163 0.0892153 0.0425271 -0.126905 0.0565161 -0.111856 0.134644 -0.000844231 0.0591545 -0.128618 0.121221 -0.0160693 0.0940493 0.0222633 -0.0647298 -0.117125 -0.0935424 0.0187146 0.0317206 0.213677 -0.0124779 0.119627 0.106145 -0.0718309 -0.0341956 -0.0548475 0.0777294 -0.164321 -0.00789494 0.126639 0.067016 0.199104 -0.0593923 -0.10124 -0.089935 0.0430447 0.18743 0.0108887 -0.142404 -0.124593 0.0648824 0.111783 -0.0741274 0.0850523 0.106393 0.0738727 -0.0510584 -0.109915 0.0164959 0.0791798 0.0916514 -0.0700644 -0.137651 -0.101606 -0.0202326 -0.0888749 -0.187979 -0.0522534 0.135202 -0.0770947 -0.137607 -0.0314849 0.100976 -0.1589 0.11304 0.0472843 -0.0450297 -0.093606 -0.161808 0.0979866 -0.0769599 -0.0667468 -0.0258017 -0.0563873 0.106344 -0.00326988 0.10491 -0.174696 0.0898351 0.0892549 -0.231571 -0.0682 -0.160905 -0.0479916 0.120628 0.00607335 -0.109091 -0.126485 -0.0936364 -0.0209172 0.0928953 -0.0072636 0.0403974 0.0666797 0.100407 0.0799958 -0.0467242 -0.0661992 -0.0509576 0.0895592
i -0.053543 0.10746 0.254957 0.168076 0.189337 0.00252014 -0.127156 0.0600846 0.0288978 0.0875474 -0.0881214 0.0750254 -0.113977 -0.123946 -0.0321071 0.122421 0.115471 -0.0712591 -0.0971097 0.0233127 -0.0258385 -0.12546 0.0213065 0.0368212 -0.0396665 -0.0107354 0.0426155 0.0403217 -0.032319 0.00481495 0.154997 -0.152661 0.013924 0.125961 0.0515953 0.157664 -0.00230003 -0.124755 -0.0031474 0.170152 -0.216539 -0.0701678 0.0576056 -0.128284 -0.16243 0.00167384 -0.00550411 0.22912 -0.00873416 -0.0359492 0.13741 -0.0520839 0.0288841 -0.124012 0.0700673 -0.123947 0.113256 0.0559215 0.127999 -0.222694 0.277471 -0.179115 0.0097263 -0.0806033 -0.0571617 -0.138 -0.0652706 -0.0491596 -0.193692 -0.00756228 -0.074677 0.0564063 -0.210186 -0.103157 -0.0930379 0.167317 -0.079738 0.0731184 -0.0387866 -0.0509816 -0.0709934 0.0272037 0.04429 0.0326691 -0.196817 0.105751 -0.165769 0.125063 0.193011 0.0828595 0.0286218 0.170405 -0.0190069 -0.00418746 -0.213798 -0.0120433 -0.0241041 0.0747846 -0.0100115 -0.0666787
to -0.0397598 0.0930994 0.141594 0.0092299 0.0901809 -0.102366 0.0328446 -0.0649612 -0.0427592 -0.0182303 0.0942721 -0.087916 0.0773132 0.0233857 0.0210068 -0.0895385 0.115428 -0.0610258 0.0741861 0.0291732 -0.0154545 0.0216493 0.0425222 0.0709029 -0.0854423 -0.0249657 0.100484 -0.108155 -0.0196346 0.0418195 0.117374 0.0629113 -0.0236588 -0.0801824 -0.0158141 -0.0209006 0.0982801 -0.0975054 -0.0630591 0.121939 -0.122798 0.0566905 -0.0828994 -0.0433134 0.0875135 0.0699406 -0.0485296 0.094625 -0.0685578 -0.0784196 -0.0881724 -0.0426808 -0.0520872 -0.159669 0.0432893 -0.121532 -0.0503485 -0.0464154 0.106064 -0.182312 0.0230823 -0.0360852 -0.0599919 -0.0334623 -0.0341279 -0.22763 0.017965 -0.0531661 -0.115135 0.0855473 0.0496657 -0.135907 -0.0946949 -0.122293 0.0405998 0.0855429 0.0766209 0.224697 0.0514534 0.083472 0.0535634 0.0267137 0.0485381 -0.0432587 0.0823423 0.088987 -0.113775 -0.0800281 0.0912953 0.0051955 -0.0134759 0.000949808 0.0306507 -0.0465341 0.112229 0.0836046 0.00149974 -0.0112038 -0.0805695 0.0441009
a 0.0834685 -0.0563792 0.00929642 -0.0832432 -0.0201185 0.0504184 0.0239508 0.0562835 -0.0115488 -0.00254225 -0.127863 0.120572 -0.0427424 0.0975256 0.0503189 0.0493382 0.0264818 -0.0971083 -0.100229 -0.116145 0.00908121 -0.105486 -0.160493 -0.0865709 0.032502 0.0895255 -0.140857 0.0685412 0.0318492 -0.0168917 -0.0617363 -0.0564985 0.046702 -0.0737261 -0.0188727 0.00146888 -0.0611888 -0.0633424 0.053835 0.093426 -0.00530861 -0.116095 0.117438 -0.0403677 0.079524 -0.0150962 0.0509638 0.0955638 0.0668981 0.0927853 -0.115011 0.142062 0.0248515 -0.036821 -0.0877322 -0.0164555 0.0845383 0.0757907 -0.095115 -0.104795 0.0958529 0.0673678 -0.00888325 0.0555927 0.0303661 -0.129458 0.126709 -0.0230791 0.0710484 -0.112174 -0.0577285 0.110842 -0.0241115 0.0108245 -0.139549 0.0408613 -0.122068 -0.0589908 -0.0992554 -0.0868512 -0.0111771 0.121965 0.0768189 0.160968 -0.0258266 0.0159689 -0.0242974 0.0342531 -0.100329 0.0995139 0.0811409 0.044936 -0.0799556 -0.145982 5.3826e-05 0.0764719 -0.139137 0.0511879 0.0563227 -0.0628196
was 0.0871715 0.108939 0.129727 -0.055179 0.120583 -0.130443 0.029406 -0.0997938 0.0992015 0.03091 -0.0333471 -0.059497 -0.00266645 -0.0990223 -0.0742497 0.0464426 -0.0185323 -0.0287265 0.0106301 0.000592305 -0.0282805 0.0171994 0.0747047 0.00614885 -0.0991322 -0.00719387 0.0455741 -0.0866375 0.0609296 0.0726444 0.0222723 -0.151955 0.0243647 -0.0199592 -0.0396262 0.0282707 0.0386276 0.0181774 0.0534853 0.108773 -0.0173542 -0.0508392 -0.111623 -0.166116 -0.065533 0.0333771 -0.00364145 0.195085 -0.0272836 0.0459667 0.107225 0.015193 0.0246934 -0.0872844 -0.17186 -0.0719881 -0.04492 -0.0372087 -0.00186715 -0.0754983 -0.0381833 -0.030325 0.052007 -0.0107067 -0.0761706 -0.0570461 -0.0917662 -0.0349238 -0.0247016 0.0632772 -0.0106219 -0.150877 -0.150305 -0.085691 0.0140542 0.160798 0.0236719 0.192808 -0.0917867 -0.0227191 0.0557172 0.0302863 0.0590926 -0.0310722 -0.163683 0.0449627 -0.193629 -0.0729149 0.106112 0.11615 0.0543645 -0.110588 -0.0405039 -0.0652114 0.110454 0.0619305 0.0827629 -0.000661383 -0.033821 0.074679
in -0.013149 0.0805375 0.0315508 -0.0256411 0.0521046 -0.0971074 0.113192 -0.0917376 0.128188 -0.0811052 0.137371 -0.0937331 0.00694536 -0.0702765 -0.0931672 -0.0170914 -0.059217 0.0158131 -0.0839225 0.138842 -0.0858968 0.0233878 0.0210932 0.0445631 -0.0834779 -0.105678 -0.0476634 -0.0715194 0.00490923 0.0286501 -0.0343594 0.0613763 -0.0738695 -0.0696392 -0.0373364 0.0330234 0.0726304 0.0356609 -0.105298 -0.00448563 0.0337279 0.0923889 0.00869687 0.0115415 -0.0291158 0.111181 -0.00640379 -0.0354016 -0.0582029 0.11364 0.0432095 -0.0598917 -0.0984765 -0.030311 0.0693201 -0.134281 -0.0459635 -0.0238217 0.130555 0.0324115 -0.0418544 -0.0990343 0.0996297 -0.0495085 0.14058 0.0175808 -0.0538866 -0.141823 -0.018901 0.0598792 -0.0478697 0.0472798 0.0362269 -0.112393 0.0563613 -0.0157916 0.0413863 -0.129173 0.0820053 0.0864864 -0.116526 0.0254929 -0.0577822 0.0477138 0.101147 0.0484932 -0.10725 -0.118086 0.0194888 -0.0199244 0.0079858 0.00736068 0.0409243 0.0201166 0.0633077 0.0979352 0.000428662 -0.0512485 -0.0996303 0.031987
that 0.0723485 0.036948 0.0473544 -0.0398472 0.101711 -0.0224535 -0.00439385 -0.0153553 0.012404 -0.0395184 0.0919897 0.0529567 -0.0703477 0.0130588 0.0381506 -0.0133246 0.026365 0.0589296 -0.0866577 -0.0566487 -0.110192 -0.0246312 0.0156185 0.0695133 -0.0807487 -0.0546124 -0.0481869 0.0156128 0.0945139 0.0885595 0.0288035 -0.133403 0.00333706 -0.0305879 -0.03513 -0.0560399 -0.0341083 0.0540623 0.104742 0.0373795 -0.0610207 -0.109387 -0.0233061 -0.11873 -0.103492 0.00275149 -0.0178529 0.168741 -0.0208652 0.0624706 -0.00658195 -0.0153001 0.0766905 -0.0286537 0.0726553 -0.00651783 0.0783598 0.0955569 -0.0803288 -0.0624701 -0.0141418 -0.0618226 -0.0364113 -0.00118585 -0.037718 -0.0328006 -0.037286 -0.0342266 -0.110935 0.0203666 -0.00658311 -0.00933002 0.0284003 0.0398929 0.0381626 0.0940038 -0.0546468 0.167998 0.0492607 0.0870712 -0.0441357 0.00731633 -0.0190381 0.101356 -0.000938233 0.0903033 -0.0117188 0.0437256 0.140656 0.103835 0.0570584 0.0249459 -0.0476432 -0.0371489 -0.0810189 0.122842 0.0633071 -0.0657077 -0.0491178 0.021726
had 0.0849434 -0.0125185 0.0454375 -0.0565521 0.189404 -0.113194 -0.00987248 -0.12487 0.0993781 -0.0432432 0.0730317 -0.0894659 -0.0203662 -0.0970215 0.00547045 -0.0244088 -0.0226658 -0.0372872 -0.0178492 -0.0789387 0.0386663 -0.00627948 0.0139431 0.0431903 -0.0798728 0.0282 -0.0604088 -0.108842 0.0976263 0.0672889 0.0548652 -0.0734218 0.0880219 -0.112978 0.0270176 0.115377 -0.0510309 -0.0339936 0.104939 -0.0537198 -0.063789 -0.0831811 -0.033058 -0.158081 0.070923 0.074968 -0.117756 0.0431998 -0.0391061 -0.0329013 0.0737139 0.0413741 8.15161e-05 -0.0765168 -0.109101 -0.108146 -0.0271769 0.0739966 0.0164749 -0.1665 0.0316729 -0.111604 -0.0563353 -0.0393255 0.0102699 -0.162323 -0.0992604 -0.0856797 -0.0793844 0.121946 -0.0877353 -0.171641 -0.0735331 -0.130012 0.0490905 0.049567 0.0736741 0.236371 -0.103171 0.0570473 0.0501072 -0.0486594 0.0800532 0.0233718 -0.0462664 0.0521519 -0.130281 -0.0417217 0.156019 0.136649 0.0961099 -0.111159 -0.0736789 -0.0182072 -0.0204911 0.0785227 0.0729032 0.0502916 -0.0441191 0.0891283
it 0.00451723 0.0524305 0.13619 0.0757285 0.173264 -0.0641694 -0.140177 0.0366589 0.0344637 0.0223603 0.0233901 0.0760976 -0.0221824 0.00623395 0.0701139 0.0239926 0.144236 0.0509632 -0.0157126 0.0139224 -0.0425861 -0.00214898 -0.0294078 -0.0513705 0.00854622 0.0489746 0.00754217 0.0599489 -0.0095092 -0.0340293 0.178928 -0.035769 0.00997763 0.0609428 0.0502719 0.0495254 -0.0562648 -0.0184089 0.022883 0.0464565 -0.109253 -0.0549615 -0.0267776 -0.0883508 -0.118824 0.0208418 -0.0655424 0.182723 0.0251898 -0.00558112 -0.0131995 -0.00467717 0.0213268 -0.14002 -0.0533481 -0.102601 0.0483321 0.0477015 0.0769356 -0.225853 0.173221 -0.102535 -0.0905862 0.0523141 0.00548904 -0.217227 0.0164061 0.0647326 -0.156334 0.0492615 -0.0722489 -0.0166079 -0.159041 0.0149374 0.0109524 0.147652 0.0233862 0.141099 0.0152818 -0.0375295 -0.0312919 0.0565652 0.078516 0.0681786 0.0558426 0.0518746 -0.0837523 0.0607493 0.144474 0.0352298 0.0530966 0.103199 0.0082113 -0.0291103 -0.148764 -0.0219672 0.0232915 -0.03907 -0.0378829 -0.051254
as 0.0040972 0.0561758 0.0859685 -0.0270218 0.147737 -0.10039 0.0068091 -0.0277428 0.0888023 -0.0301656 -0.00421767 0.0447769 0.0249479 0.0130253 0.0294778 -0.0304006 -0.0303755 0.058817 0.0271948 -0.00693978 0.00230163 -0.0655741 -0.0489416 -0.0217926 0.026112 -0.049807 -0.0111047 0.0474554 0.0274296 0.0376333 0.00828632 -0.100631 0.0620821 -0.0670516 -0.0670638 -0.00266338 -0.0673966 0.0486602 0.0850681 -0.0560988 -0.0359558 -0.00620188 0.0107787 -0.0914997 -0.0509723 0.0337724 -0.0388572 0.058408 0.0289437 0.0159965 0.0479641 -0.0110974 -0.00176839 -0.0293196 -0.101004 -0.0018839 0.0108607 0.0142807 -0.0269478 -0.0153308 -0.047076 -0.0710754 0.00163706 -0.043963 0.0564777 -0.0896575 -0.0261489 0.0663846 -0.0395365 -0.038326 -0.0910933 -0.116464 -0.0130229 -0.0486067 0.0112523 0.0226239 0.0325505 0.0221742 0.00272481 0.0769288 0.058229 0.0366393 -0.0672599 0.0472176 0.0527728 0.0591638 -0.0693709 -0.0857573 0.0141681 0.0110262 -0.0100247 -0.0402092 0.0109551 -0.0158827 0.0205494 0.0745295 -0.035018 -0.0874387 0.01277 0.048122
not 0.0456786 0.0180539 0.174153 0.029292 0.124131 -0.0897234 -0.126346 0.00057219 0.0207107 0.0275387 0.0512968 0.0763148 -0.0454242 0.00852838 0.0370402 0.0182506 0.016614 0.0806543 0.0186879 -0.0447683 -0.0116579 -0.0075973 0.0245518 0.0171498 -0.00170836 0.027132 -0.0102337 -0.0229112 0.0446525 0.0185297 0.0980573 -0.175287 0.108731 -0.0416763 -0.0221263 -0.0224246 0.000605977 -0.022594 0.0585377 0.0531353 -0.085539 -0.0756714 -0.0758014 -0.104152 -0.0883761 -0.0135355 -0.0824868 0.175479 0.0098024 0.0726395 -0.0424408 -0.0201779 -0.00056142 -0.115229 -0.0932688 -0.0497971 0.0782313 0.0578298 0.00843005 -0.150206 0.0186637 0.016837 0.00878197 -0.0138518 -0.032421 -0.133032 -0.042048 0.0881113 -0.132191 -0.00712066 -0.104718 -0.0952718 -0.150001 0.00779504 0.0210225 0.129172 0.0299437 0.0670546 0.012976 0.0517627 0.050796 0.0321006 -0.0220965 0.00265937 -0.142972 0.0243387 -0.120508 -0.016201 0.111867 0.0664314 0.0721758 -0.0150534 -0.0414132 0.0186388 -0.0588948 0.0150746 -0.0363049 0.0114926 0.0458116 -0.0484083
were 0.0217823 0.0598278 0.0340707 -0.0624172 0.0754771 -0.00369794 -0.0278346 -0.0749731 0.0509047 0.0483235 0.0162836 0.050119 0.0287402 -0.0370031 0.00073347 -0.00604951 0.0143953 -0.0578952 -0.0806866 -0.0085856 0.000267719 -0.029134 0.0192466 -0.0123375 0.018088 -0.000458295 0.00760725 0.0338204 0.037909 -0.0461969 -0.0345492 0.0383542 -0.0501971 -0.0884055 0.0195348 -0.0160407 0.0266624 0.0299001 -0.0215849 0.0287788 0.0157175 0.0126299 0.00102608 -0.00246051 0.00983184 -0.00429677 -0.0117647 -0.0359897 -0.017525 0.0595772 -0.0740455 -0.0295228 -0.038535 -0.0526619 -0.0304863 -0.0589875 0.0505383 0.0268857 0.069053 -0.106297 -0.0692995 -0.0435889 0.0626041 -0.0409289 0.0420154 0.0952629 0.023182 -0.0769022 0.038903 -0.050529 -0.0395507 -0.0295591 0.0419269 -0.0797944 0.0100481 0.0307017 0.0619491 0.0433672 -0.00220013 0.0638824 -0.0287054 0.0472151 0.0581271 0.0543531 -0.0992487 0.0123322 -0.0594675 -0.099356 -0.0101738 0.0169093 0.0815458 -0.00622423 -0.0531819 -0.0430762 0.0627054 0.0966321 -0.0280936 0.0166646 -0.0500639 0.0337574
they -0.0057035 0.0858747 0.0518311 0.0377686 0.127746 -0.0775387 -0.0130972 0.00852855 0.0283733 0.0777704 -0.103215 0.0668625 -0.0628941 -0.0094945 0.0407814 0.0375407 0.0472271 -0.0517913 -0.0313714 0.0218091 -0.0141943 -0.0465101 0.0457875 0.0306425 0.0201107 0.041311 -0.0339269 0.0242943 0.0584733 0.0304462 0.0740772 -0.0105809 -0.00798787 -0.0439491 0.0392849 0.00739691 -0.0177562 -0.0943534 -0.0237979 0.0156562 -0.0919285 0.0763572 0.0565341 -0.0293194 -0.0484609 0.00753904 0.0375863 0.0100643 0.0617501 0.0332474 0.0691833 0.0233192 -0.0193369 -0.0350528 -0.00737514 -0.0975055 0.0240177 0.00224212 0.0147354 -0.100334 0.0606434 -0.0104971 -0.0673123 0.0433557 -0.0409021 -0.0875229 -0.0195518 0.00469543 -0.0702025 -0.0183419 -0.0183061 -0.012253 -0.0682278 -0.073968 -0.0180225 0.0322442 -0.0385108 0.00809284 0.00179695 -0.0546193 0.0074894 0.0722374 0.0325264 -0.013248 -0.0309538 0.0167911 -0.0725057 0.0413112 0.0650912 0.0656348 0.0542377 0.0958397 -0.0580527 -0.0547216 -0.0408906 -0.0268625 -0.00696713 -0.0160197 -0.000752942 -0.011916
with -0.0546857 0.00149968 -9.72964e-06 0.0104595 -0.0140983 -0.0329018 0.0203064 -0.054206 0.0580143 -0.034047 0.061864 -0.00422435 0.0540815 0.0153229 0.0200078 -0.0203503 -0.032744 -0.0411812 0.00647327 0.0616738 0.00753293 -0.000924641 -0.0533378 -0.0222195 0.00399383 -0.0640466 -0.0236191 -0.0379764 0.0348742 0.037692 0.0272199 0.0603272 -0.0846894 -0.0217038 -0.0284924 -0.042418 0.0335932 -0.0135784 -0.0710389 -0.0155248 -0.00283058 0.0458701 -0.0442177 -0.0297069 0.0402618 0.0367992 0.0445739 0.0513582 0.015948 0.0107498 -0.0149664 -0.0119367 -0.0520731 -0.0390122 -0.0346746 -0.0863776 -0.0767129 0.0432556 0.0882308 -0.0149468 -0.0545226 -0.00161591 0.070891 -0.0114669 0.0963098 -0.014551 0.0226727 -0.0393606 -0.0542643 -0.0394586 -0.0675744 0.0391957 0.00134518 -0.0542108 0.0655582 -0.00929113 0.0245854 0.00148245 0.0783353 0.0281305 -0.0376301 0.00937897 -0.0397635 -0.0113795 0.0872202 0.0171407 -0.019602 -0.0587827 0.0196222 -0.00284722 0.0234023 -0.0325184 -0.0350781 -0.0225896 0.0186949 0.00343708 -0.0605328 -0.0701219 0.00081387 0.0160557
at 0.0402863 0.0743094 -0.00957164 0.0226693 0.0609152 -0.0456109 0.0186182 -0.0845575 0.0833636 -0.00904856 0.0287797 -0.0171537 0.00541658 -0.0283676 -0.00655262 -0.0231523 0.0407515 0.0454569 -0.0260193 0.0598348 0.0196707 -0.00309282 0.00528477 0.00419084 -0.081344 -0.0574493 -0.0245217 0.037113 0.0960916 0.0866655 0.0543133 0.019323 -0.0526707 -0.0292541 0.000887571 0.0265723 0.00727771 -0.0235478 -0.0171542 -0.0681461 0.0162486 0.0456207 -0.0428163 -0.0424554 -0.0302155 0.00470979 -0.040273 0.0229493 0.018054 0.0645688 -0.0478578 -0.00892244 -0.0577665 -0.049923 -0.0382904 -0.0402342 -0.0726168 0.0479326 0.0388818 -0.0166753 -0.0756925 -0.030684 0.0751853 -0.0512921 0.0636995 -0.0219087 0.0166132 -0.0125659 -0.0220275 0.0450814 -0.0241164 -0.059923 0.0276461 -0.00496125 0.0517332 0.0376827 0.0780945 0.0437468 0.042664 0.070798 -0.0308073 0.0310824 -0.0774413 0.0317505 0.032053 0.0690572 -0.0965421 -0.0611113 0.0272357 0.0119118 0.0363316 -0.0372743 0.00479097 -0.021069 -0.00268088 0.00169834 0.0458837 -0.0338826 -0.049774 0.0827517
but -0.00483077 0.0767452 0.0166633 -0.0304822 0.0442845 -0.0952506 0.0405832 -0.0721331 0.0346319 0.0143126 0.0165137 0.00168158 -0.0243497 0.0254135 -0.0115718 -0.0282063 0.0116229 0.00826631 -0.0666476 0.0181182 -0.0743622 0.0217921 0.0197951 -0.0487979 -0.0350312 -0.0256814 0.0345838 -0.000831968 -0.00657687 -0.00467283 0.0362046 -0.0848575 -0.00700488 -0.03344 -0.0540536 -0.0236362 0.0263988 0.00890442 0.00507782 -0.0379609 0.00442546 -0.0176003 -0.0484384 -0.0421271 -0.0153236 0.0788537 0.027343 0.147962 0.0487665 0.0994672 -0.00882316 0.0124686 0.00127803 -0.00801413 -0.0331495 -0.0562308 -0.0051843 0.000630928 0.0743349 -0.0683072 0.0355156 -0.0120611 -0.0501739 -0.0237323 0.0567324 -0.0988168 -0.0415238 -0.0103257 -0.0206568 0.00525415 -0.0546508 -0.0358112 -0.143427 -0.0499582 -0.0262766 0.113679 -0.0104233 0.00243769 0.0216722 0.00195383 -0.00528138 0.037213 -0.0483912 -0.0133913 -0.0195783 0.0287064 -0.100438 -0.0610574 0.069027 -0.0098629 -0.0207207 -0.0181647 -0.0251054 0.0298167 0.0422875 0.0762374 0.019703 -0.0244248 -0.0331751 -0.0176381
for 0.0192631 0.0727824 -0.00641774 -0.0475189 0.020672 -0.0997691 -0.0354301 -0.0324297 0.0877766 -0.0533785 0.0704854 0.00216881 0.0650206 -0.0277178 -0.0245979 -0.0224893 -0.00605455 0.039163 -0.00483231 0.0603554 -0.0137951 0.0403323 -0.0316142 -0.0077884 -0.0205219 -0.0576654 -0.0141238 -0.0320584 0.0268972 0.0804509 -0.0234867 -0.0217812 0.000846662 -0.0639758 -0.063379 -0.00112627 0.0655602 0.0383572 -0.0267164 -0.0141847 0.0320825 -0.00818771 0.0282174 -0.0264297 -0.0119168 0.0313342 0.00864091 0.12194 -0.0135123 0.0360245 -0.0612323 0.0156244 0.0281596 -0.0264702 -0.0199633 -0.0452852 -0.0587219 -0.0178765 0.0108203 0.00929236 -0.0548845 0.00187715 0.00361039 -0.0415022 0.0235942 0.026803 0.0443196 -0.0349047 -0.0435608 0.0369373 -0.051207 0.0188113 0.0118783 -0.00765777 0.0406094 0.0530286 0.0782062 -0.0190838 0.0664 0.0403228 -0.0273135 -0.0395744 0.00308022 0.0464706 0.0394739 0.0799369 -0.0811696 -0.0384349 0.095881 0.0230378 0.0264072 -0.00282886 -0.0011011 -0.0361351 0.0564435 0.0414059 -0.0122318 -0.0892513 -0.0521845 0.0145332
from -0.00932598 0.0860776 -0.00105654 -0.0283828 0.0484928 -0.0612284 -0.0081015 -0.0310019 0.0119357 -0.0629409 0.0983338 -0.018603 0.0911687 -0.0701106 -0.0574913 -0.0384539 -0.0198492 0.0325731 0.0186181 0.10713 -0.00638994 -0.0196277 -0.0166495 0.0568906 -0.0845978 -0.0704324 0.0298596 0.0648755 0.10268 0.119393 0.0296506 0.0448944 -0.0903782 -0.0534355 -0.0428436 0.0221964 0.123227 -0.0240055 -0.00807445 -0.0737859 -0.0141686 0.112751 0.0417916 -0.102665 -0.0329962 0.0511138 -0.00936237 0.0345337 -0.0254825 0.0603844 0.00573 0.0301918 -0.123086 0.0117253 0.00691969 -0.00692866 -0.0664461 -0.0469698 0.0530218 0.0178888 -0.0448197 -0.0734749 0.0921426 -0.101601 0.0294267 0.0652813 -0.0611137 -0.10723 0.0318334 -0.00544944 0.00449841 -0.0112004 0.00983421 -0.0067708 0.134666 -0.0284306 0.0635308 0.0255442 0.111052 0.0538932 -0.106087 -0.0334703 -0.121388 0.0485982 0.0521582 0.0792297 -0.0337627 -0.0688221 0.111759 0.0014252 0.0303905 0.0210914 0.0546502 0.0464878 0.0605112 0.0527587 0.0474115 -0.0947167 -0.116363 0.112322
all 0.0172619 0.0618456 -0.00953814 0.055074 -0.0112505 0.0155758 0.0239121 0.0218383 0.0544448 -0.0440857 0.0447572 0.00349669 -0.00473648 0.0631475 -0.0142554 -0.0311046 -0.030162 -0.0294649 -0.0279036 0.065562 -0.0107869 -0.00775048 -0.0287004 -0.00209442 -0.0815532 -0.0873402 -0.0191686 0.0499332 0.0790104 0.0837889 -0.0171905 0.075965 -0.0746795 -0.0280843 -0.00645784 0.03136 0.00437908 -0.042985 -0.0390303 -0.0353338 -0.032789 0.0538506 0.063015 -0.0420641 -0.0478156 -0.0035472 0.0180471 -0.0111586 -0.0341321 0.0288503 -0.0310046 -0.0122009 -0.0896213 -0.0169931 0.0282888 -0.0200972 -0.0682293 -0.0192963 0.0538397 0.0261214 -0.0839903 -0.0366338 0.0700732 -0.0400242 0.009463 -0.0505292 0.00365236 -0.0447242 0.0290878 -0.0472724 0.0138387 0.00747722 0.0140954 -0.00796416 0.0340821 -0.000543692 0.0503864 -0.0872347 0.0224529 0.0780813 -0.068031 -0.00581937 -0.00771538 0.0357397 -0.00591456 0.0753421 -0.048668 -0.0314147 0.074618 0.0167639 0.0364458 0.0668257 0.0307399 -0.0140381 0.0336941 0.0338762 -0.0141637 -0.0279588 -0.0043012 0.0920316
which 0.0156609 -0.0191487 0.0151821 -0.0240832 0.0394496 -0.03406 -0.0532562 0.0240975 0.0390222 0.0235601 0.0626922 -0.00293102 0.00785662 -0.0369699 0.0350318 0.0105453 0.0591427 -0.0655067 -0.0453096 0.0033563 -0.0862701 -0.0480285 -0.0265453 0.0190826 -0.0489957 -0.0215335 -0.030476 -0.00852496 -0.00405364 0.0794944 0.0595084 -0.0188096 -0.0507957 -0.0604869 -0.0475972 -0.0750084 0.0260661 -0.0251659 -0.0638546 0.028824 -0.0101834 0.0896697 0.0316439 -0.0556222 0.00404659 0.0103288 0.0578143 0.0925115 -0.0264921 0.0206017 -0.060774 -0.0289129 0.0296841 -0.056269 -0.0178411 -0.0569074 -0.0368993 0.0150439 0.023468 -0.0136242 -0.0414357 0.00382337 -0.0016762 -0.00447939 0.0132894 -0.123746 0.0377405 -0.0220504 0.00211159 0.0539503 0.00677884 0.0325774 -0.0533505 0.00139594 0.0341522 0.0143163 -0.0272223 -0.0308918 0.0539459 -0.0102485 0.032348 -0.000397093 -0.0163186 0.0833357 0.0456159 0.0512705 -0.0922253 -0.00825377 0.0874815 0.0444654 0.0264302 0.0510414 -0.00618783 -0.0257571 -0.00969728 0.0167474 -0.0334294 -0.0873642 -0.0128394 -0.0312358
when -0.0258711 0.0234495 0.0391062 0.0293634 0.101205 -0.042139 -0.053222 -0.0721596 0.010908 0.0271936 0.139472 -0.017006 0.0308325 -0.0276078 0.070224 0.0451462 0.0426303 0.0246291 -0.0538117 0.00649109 -0.0279857 -0.020717 -0.0902698 0.00832101 -0.0419536 -0.0684356 0.00733293 0.0284366 0.0754947 0.041418 0.03815 -0.0227622 -0.0380737 -0.0347711 -0.0563634 -0.0419299 -0.0731224 -0.0182727 0.040395 -0.0762681 -0.0256468 -0.05902 -0.0526792 -0.0204625 -0.0164071 -0.0134206 0.0146908 0.0531998 -0.0188051 0.0268937 -0.00626299 -0.0320881 0.0416788 -0.115926 0.00596066 -0.0136152 -0.0197475 0.000916807 -0.0206226 -0.065656 -0.0395189 -0.0794346 0.081543 0.00140555 -0.0120603 0.0266238 -0.00559459 0.0280524 -0.00488519 -0.018044 -0.075657 -0.0479902 -0.00662504 0.0189936 0.0664227 0.0310095 0.040164 0.0172513 0.0905117 0.103461 0.00780249 -0.00164612 0.0355485 0.0931168 -0.00343091 0.0762679 -0.0854582 -0.010761 0.0505183 0.0548404 0.0666598 0.0264692 -0.0139412 -0.00410247 0.0437463 0.0928466 0.0286843 -0.0892002 0.000201676 0.059542
me -0.00276824 -0.0127078 0.00275556 -0.00323161 0.0893183 -0.0375024 -0.0333105 -0.0564524 0.0407769 0.0216429 -0.0515765 0.0211495 0.0598906 0.00894104 0.0091237 0.01841 0.0408331 0.00828844 -0.0930168 0.0197298 0.00186878 0.00291858 -0.0071961 -0.0063788 -0.0248865 0.0513445 0.000420602 0.043651 0.0816204 0.0456648 0.0336073 -0.0701943 0.0319542 -0.118796 -0.017248 -0.0548001 0.0597521 0.0238206 -0.0312086 0.0538472 -0.0464815 -0.0551126 0.0471964 -0.0790971 -0.0534109 0.0338675 0.00270887 0.00482456 -0.00810996 0.0421279 0.024799 0.0291597 0.0319329 -0.121434 -0.0348668 -0.0438826 0.00115245 0.0362959 0.0291042 -0.0942499 0.0628421 0.0168602 0.0239098 0.0166154 0.0570249 0.00129529 -0.00256537 -0.0149841 0.022556 -0.0588677 -0.0156488 -0.00402019 -0.0431326 -0.0534474 0.00540402 0.0688832 -0.0414623 0.047068 -0.032339 0.00286784 -0.0344641 0.0349192 0.065257 0.097286 0.016478 -0.0345317 -0.0434337 -0.0197522 -0.0294304 0.0164275 0.0898884 0.0620049 -0.0100614 -0.0307054 -0.0786004 -0.0306193 0.0266539 -0.0240684 -0.0154097 0.0196624
my 0.0390297 -0.0171539 0.0162244 -0.0248213 0.02931 0.00905582 -0.0674044 -0.0599057 0.064894 0.0227382 0.032014 0.0240168 0.0495862 0.0647175 0.0635318 -0.0203347 0.057414 -0.0190666 -0.0805963 -0.0593728 0.0289874 -0.0382733 -0.0587301 -0.0801204 0.0369685 -0.0284968 -0.0908284 0.00169637 0.00527395 0.0341191 0.0179814 -0.0824416 0.0329639 -0.0593015 -0.0230576 -0.0730518 0.00219964 -0.025758 -0.0165625 -0.0213705 0.00826797 -0.0616748 0.0400364 -0.0664535 0.0565351 0.0293873 0.0582779 0.0231544 0.0275785 0.0625372 -0.0183087 0.0926082 0.0316669 -0.093785 0.0596691 -0.00628517 0.0136544 0.0786369 -0.00305541 -0.0660991 0.0640125 0.00153149 0.0314515 -0.00239242 0.0380824 0.0080596 0.0483228 0.0154539 0.068441 -0.0283434 -0.0372036 0.0198683 -0.0388087 -0.00540304 0.00356364 -0.00899186 -0.032924 -0.0270821 -0.0292049 0.0243935 0.0213548 0.0348562 0.0594807 0.0855186 -0.0514887 0.0169584 -0.0483449 0.00122375 -0.0560539 0.0528948 0.0521283 0.0610985 -0.0526928 -0.0206896 0.037079 -0.00789546 -0.0143323 0.00022227 0.0313398 0.012814
there 0.049566 0.0303874 0.122633 0.036704 0.0992276 -0.0294446 -0.0776636 -0.0179985 0.0114035 -0.0146431 0.00164823 0.0645501 -0.0136264 -0.0142163 0.0407668 -0.0107198 0.0876857 0.024758 -0.0273453 0.0263491 -0.0524769 0.0157246 -0.0183555 0.0222976 0.0335039 0.0348173 0.00235159 -0.00898776 -0.0429577 -0.0227537 0.094289 -0.0248829 0.0287329 0.0145342 -0.0376125 -0.0217015 -0.0314965 -0.0501128 -0.0123152 0.075204 -0.0809788 0.0525203 -0.0245527 -0.0816379 0.0411069 -0.0445692 0.0716366 0.00991481 0.0369357 0.0609907 -0.133218 -0.00713061 0.0591729 -0.00421749 -0.0107641 0.00226258 0.0574155 0.0353274 0.0232712 -0.146987 0.0395122 -0.0680936 -0.0313149 -0.0080474 0.0288619 -0.0145713 0.0206912 -0.0429013 -0.0554712 -0.0205495 -0.0929651 0.0539694 -0.112623 -0.0306956 0.0282036 0.0700689 0.0113078 0.07522 -7.14762e-05 -0.0321824 -0.0746988 0.0382327 0.0130617 0.096858 -0.0231976 0.00958266 -0.049584 -0.0319699 0.0609351 -0.00305249 0.0435681 0.0490657 0.00547104 -0.00174567 -0.0578061 0.0600834 -0.0359715 0.0118048 -0.0535181 -0.0655671
he 0.0256552 0.0598589 0.077755 0.00793128 0.0457971 0.00474502 -0.0666328 -0.0531005 0.0640718 0.0600451 0.0179453 0.0536307 -0.00145635 0.0449132 0.0112947 0.0215986 -0.0207392 0.0109512 -0.000811835 0.00972062 0.000237876 0.00301152 0.0177033 0.00250027 -0.00362776 -0.0180361 -0.0423054 -0.0102382 0.00666961 0.011047 0.0425994 -0.0234249 -0.0252954 0.0245257 -0.0520861 0.0366854 -0.0347316 -0.0322691 0.0183175 0.0239613 -0.0848705 0.044236 0.00712229 -0.0140552 -0.0202096 0.0195656 0.0504183 0.00480167 0.0104856 0.0511692 -0.0159019 0.0506752 -0.0413331 -0.0346877 0.0459646 -0.0562136 -0.00791365 0.0180918 0.0759888 -0.086476 0.0467329 -0.0207735 -0.0550909 -0.0118971 0.0294968 -0.0564796 -0.0238462 -0.0170173 -0.00979985 0.0164458 -0.0701587 0.0560008 -0.0427754 0.0199485 -0.0287807 0.0679189 0.0198793 -0.0419102 -0.0225543 0.00202244 -0.0443878 0.0525717 -0.0150244 0.0535037 0.0144522 0.0692892 -0.0596165 0.0096831 0.0443983 -0.0238452 0.0332857 0.0783309 -0.0135606 -0.00774884 -0.0473825 -0.0170044 -0.0493685 -0.000542785 -0.0442392 -0.0196019
no 0.056877 0.0537721 0.055444 -0.0443728 0.0709441 -0.0653322 -0.063333 -0.0663278 0.0611629 0.0157096 0.00284466 0.0319521 0.0307693 0.0277433 0.0678977 0.0633781 0.047537 0.00200542 -0.00676719 0.0248552 -0.0160149 -0.0249501 -0.00386923 0.0171374 0.0299245 0.0427044 -0.0334236 0.021822 -0.0202919 -0.0254202 0.0672448 -0.0653987 0.053101 -0.0684451 -0.0346381 -0.0530156 -0.0554592 -0.050976 0.0567508 0.0544521 -0.056146 0.0150637 0.0028777 -0.0359557 0.0206819 0.0447502 0.0496679 -0.0338078 -0.0110484 0.0323555 -0.0534341 0.0202319 0.0393219 -0.00074709 0.0257581 -0.00269617 0.0551911 -0.00528255 -0.0326589 -0.0607332 -0.0288179 0.0360172 -0.0452142 -0.021696 0.0158778 -0.0137717 0.0252172 -0.011036 -0.0293094 -0.0254572 -0.0345171 0.0435837 -0.0492869 -0.0516181 -0.0121158 0.029 -0.0542039 -0.0657264 0.0197659 -0.000282116 -0.0449109 0.0490342 0.0295341 0.0158646 -0.0279253 0.0185822 -0.0643534 -0.00606964 -0.00662099 0.0326809 0.096584 0.0128743 -0.0680629 -0.0790119 0.0107518 0.0286557 -0.0162592 -0.0112975 -0.00960269 0.0154609
could 0.0462146 0.040434 0.115143 -0.0195271 0.112244 -0.0291434 -0.0794823 0.0150787 0.00406354 -0.00460636 -0.00807048 0.0425654 0.0153842 -0.0215993 0.0695115 -0.0212526 0.055467 -0.047745 0.0335401 -0.0266175 -0.0705662 -0.044498 0.0169581 -0.077376 -0.0151423 0.0424596 0.0283423 -0.0617722 0.0322342 -0.033742 0.0750614 -0.0508066 0.0737901 -0.0245405 0.0485047 -0.0540934 0.0108854 -0.00846473 0.0614323 0.0208812 -0.0448945 -0.0120262 -0.0162822 -0.0869356 -0.081943 -0.00298648 -0.0221175 0.148306 0.0293033 0.0511262 -0.0461779 0.0542248 0.0370853 -0.0742352 -0.150807 -0.043668 0.0304828 0.0385354 -0.00149031 -0.105997 0.0115751 -0.0118623 -0.0692506 0.0453079 0.00319624 -0.0993491 0.05652 0.0255653 -0.00305602 -0.0608172 0.00101425 -0.0801802 -0.112188 -0.0870355 0.0282289 0.123277 0.00113669 -0.00186505 0.000294594 0.0474246 0.0137249 0.040849 0.0458364 0.017808 -0.0380977 0.0597859 -0.0397862 -0.0497537 0.10914 0.0760639 -0.0180805 0.0427048 0.0212696 0.0118999 0.0316256 0.00240304 0.00257123 -0.0462451 -0.0186023 0.000616933
s 0.0563905 0.0817181 -0.0579772 0.0124578 -0.0407782 -0.0489082 -0.0240374 -0.0601581 0.0635449 -0.0176557 0.100366 0.0303074 0.0272442 -0.0360071 0.044914 -0.069872 0.0183553 -0.0571916 -0.0730695 0.0621704 -0.0764432 -0.014399 -0.0377127 -0.0120786 -0.0476078 -0.0359013 0.00346701 0.0508313 0.0222737 0.0410581 0.00893806 0.0572765 -0.00353289 -0.0724466 0.0180168 -0.00333234 0.0685152 -0.0457939 -0.0839402 -0.0708101 0.0236312 -0.0107806 0.0759094 0.00461746 -0.0536951 0.0921158 0.0620799 -0.0584901 0.0332683 0.0707485 -0.0508404 0.00264281 -0.0144566 0.00482652 0.00593521 -0.0406381 -0.0595937 0.00159478 0.0735218 -0.0406713 -0.0703668 0.00460666 0.0525626 -0.0117219 -0.00386214 0.069582 0.0324089 -0.107778 0.0711223 -0.0142306 -0.00144382 -0.0140119 -0.0186608 -0.0126245 0.0184555 -0.035537 0.0732388 -0.0802835 0.0540767 0.0211926 0.0189227 0.0380862 -0.0376087 -0.0108497 0.05264 0.0288773 -0.0616222 -0.0103136 0.0109085 0.0609006 -0.00388432 -0.0319286 -0.0173249 0.0240381 0.0539845 0.0555426 0.000235321 -0.101956 -0.048754 0.0596277
be 0.0328875 -0.0163179 -0.00336895 -0.081019 0.0863794 -0.0449394 0.0184205 -0.000533389 0.0258915 0.00763315 -0.0503241 0.0948337 0.0798298 0.0316951 -0.00297359 -0.0154287 0.112315 -0.0760813 -0.0426434 -0.0576536 0.00510717 0.000408158 0.0239273 -0.0485963 -0.0112091 0.00827844 -0.0265369 -0.0174901 0.0429345 -0.0631214 0.0353015 -0.0205656 -0.00831842 -0.0995891 0.0144515 -0.041918 0.0622954 -0.0305295 -0.0676191 0.0192396 -0.105863 -0.00637795 -0.047022 -0.104782 0.0909671 -0.00448399 -0.0155032 0.0213665 0.027853 0.0396873 -0.0504545 0.0371972 0.0620492 -0.077005 -0.00681545 0.0188683 0.0870969 0.0747723 -0.0180493 -0.0467547 0.0730818 -0.000739007 -0.0788361 -0.0746799 0.0829197 -0.044319 0.0489453 -0.0543069 0.0211999 -0.0655889 -0.000128562 -0.0366782 -0.0607898 -0.0444194 -0.0492512 0.149538 -0.0364969 0.110101 -0.0833682 0.0577745 -0.0710287 -0.00782011 0.083465 0.0372442 -0.113012 -0.00294057 -0.0803669 -0.052965 -0.0767527 0.0597483 0.102765 0.0569392 -0.0221825 -0.00379148 -0.0421961 -0.0114125 0.0303606 0.0510118 -0.0287114 0.0326325
by 0.033412 0.0548434 -0.0174795 -0.0633587 -0.00647359 -0.0223861 -0.0421237 -0.0643232 0.0309869 -0.0069793 -0.00675845 0.0393067 0.035573 -0.00899036 -0.0252768 -0.0879951 0.0470755 0.0381831 -0.048218 0.0946095 -0.0309763 0.0210126 -0.00509627 -0.0498408 -0.054609 0.0164767 -0.0390031 -0.0383967 -0.0118579 0.0274917 -0.0302852 0.0435075 -0.055834 -0.0177532 -0.0331233 -0.0313643 0.0374866 0.00549256 -0.051167 -0.0319095 -0.00983333 0.0625668 -0.0111653 2.31269e-05 -0.0200633 0.0667016 -0.010483 0.0431337 0.0388603 0.0484742 -0.0504866 0.0334345 -0.0554525 -0.00632 0.0496435 -0.0925074 -0.0596511 -0.00354444 0.0199928 0.00698117 -0.0842277 0.0442746 0.026399 -0.0109534 0.0531442 0.0184079 -0.0255003 0.0080181 -0.0161509 0.0382894 -7.2762e-05 -0.0245608 -0.0377476 -0.0513522 0.0632264 0.0397649 0.0109008 0.000828295 0.0705507 0.0689735 -0.00424054 0.0321604 -0.0468078 -0.0112668 0.0601797 0.0553887 -0.0429352 -0.0574401 -0.0223793 0.0277142 0.00218586 0.0423912 0.0325254 -0.0271431 0.0439861 0.0666835 -0.0260637 -0.0243638 -0.0659109 0.0674385
on 0.0488271 0.0865146 0.0105071 0.00293515 0.0531337 -0.0439359 0.0211145 -0.0653026 0.0280057 -0.0397374 0.0532314 -0.0266372 0.0502295 -0.0632937 -0.0525341 -0.0285558 0.00884993 0.0368187 0.00803245 0.0668269 -0.012762 0.0259214 -0.0168194 0.0253155 -0.043093 -0.0666014 -0.0189642 0.0413482 0.0444833 0.0735525 0.00115727 0.0495732 -0.0912654 -0.0364694 -0.0577322 0.0336344 0.0301913 -0.0210592 0.00366757 -0.0480576 -0.0474639 0.0161181 0.00494715 -0.0188592 -0.000447887 0.0699924 0.0355841 0.0296512 0.033333 0.0858289 0.0181774 -4.70634e-05 -0.0573835 0.018151 0.0197331 -0.0100652 -0.0769214 -0.0220525 0.085069 0.072014 -0.0421215 0.00583313 0.0856492 -0.0977156 0.0857787 0.0433962 -0.0573268 -0.0297024 -0.00692768 0.0608814 -0.0494606 0.0563678 -0.0157413 -0.0596182 0.0814316 -0.0141522 0.0456142 -0.0171778 0.0589589 0.0547491 -0.0222245 -0.00283411 -0.0923883 -0.00347823 0.0645949 0.0567483 -0.0266716 -0.0562421 0.0718818 0.0491409 0.00933162 0.0423257 0.0172788 -0.00737895 0.0781677 0.0452049 0.00205359 -0.0477462 -0.0977664 0.0223443
saw 0.0115249 0.0567695 0.0329157 -0.00182842 0.0971524 0.0041359 -0.0834706 -0.0807012 0.079161 -0.0140413 0.0430899 0.00306571 0.0211756 -0.0447683 0.00521674 0.0361034 -0.0115367 0.0255801 0.0157641 0.0149743 0.0402076 0.0117045 0.014625 -0.00292687 -0.0777899 -0.0200217 -0.0180298 -0.0324779 0.0963385 0.0519218 0.0538682 -0.0720299 0.0620723 -0.0392591 -0.0474059 -0.0346756 -0.0290035 0.0513021 0.0649715 -0.0592464 -0.0611423 -0.0652718 -0.0265941 -0.0672231 -0.100053 0.0544914 -0.0439676 0.0645972 -0.0471365 0.0341358 0.0588814 0.0413797 -0.00483981 -0.100593 -0.135283 -0.0806712 -0.0654929 0.0523297 0.0251495 -0.0128036 -0.118476 -0.0675016 0.00290678 -0.00303732 0.00611105 0.00418314 -0.0122813 0.0623387 -0.0705067 -0.00184529 -0.0142493 -0.102856 -0.0250933 -0.0553201 0.0989934 -0.00577903 0.0399998 0.0953988 0.0599886 0.00964469 0.086893 0.00882442 -0.0520603 0.0104146 0.0372596 0.0345253 -0.0587783 -0.0557926 0.116444 0.0254218 0.0308676 0.00752808 -0.0209522 0.0365187 0.0705386 0.0702672 0.0241037 -0.0793561 0.0283209 0.0733617
his 0.088015 0.039369 -0.032088 0.0169934 -0.000345615 0.0337859 -0.046514 -0.035949 0.0499188 0.0329153 -0.0347793 0.0361344 0.0347821 0.0739195 0.106477 -0.0180028 0.0358232 -0.0113327 -0.016672 -0.0215078 -0.0324352 0.0236087 -0.0556813 -0.0877168 -0.0150073 -0.0316939 -0.0574963 -0.011957 0.0279338 -0.0408418 -0.00239672 -0.0389196 -0.00392263 -0.0077508 0.0134753 -0.0121964 -0.0478471 -0.085675 0.0134633 0.0537311 0.0333535 0.0319561 0.0677542 0.00482333 0.0372761 -0.0224296 0.0708025 -0.0685592 0.00987375 0.0754396 0.0197088 0.0673157 -0.0105486 -0.0786378 0.00930186 -0.0549422 -0.0329305 0.0503034 -0.0161706 -0.0290631 0.00759997 0.0245849 0.0176244 0.0292139 0.0240829 0.0423357 0.049389 -0.0452697 -0.0394496 -0.0957396 -0.0636493 0.00541241 -0.03218 -0.0278815 0.00754787 -0.0378393 -0.00572996 -0.0949855 0.0351129 -0.0508632 0.0279872 0.00301562 -0.0136028 0.0494867 -0.0181493 0.0223857 -0.0572668 0.0258762 0.0373847 0.0825502 0.00504577 0.0716163 -0.0758289 -0.0613973 -0.0321102 0.0211299 -0.0967405 -0.00185844 -0.0279626 0.0134647
this 0.0502499 0.0538902 0.0125689 -0.0309864 0.0572482 0.00279792 -0.0558237 -0.020425 0.0399125 0.0448173 -0.044527 -0.00375823 -0.00904545 0.0155987 0.0500266 0.0285295 -0.000184422 -0.0483377 -0.00117412 -0.0156354 -0.018693 -0.0364789 -0.059274 -0.0167798 0.0151227 0.00252071 -0.0405674 0.0178983 -0.0036848 0.0301615 0.0501139 -0.00592238 0.00337946 -0.0611278 -0.0315072 -0.0103565 0.0352248 -0.030624 -0.00756734 0.0277413 -0.0659207 -0.028532 0.00276146 -0.0541411 0.0569773 0.0400109 0.0201404 0.0386815 0.0194739 0.0591596 -0.0266927 0.010111 -0.0537701 -0.0593415 0.0582735 -0.0244535 -0.0280574 0.0032966 -0.0297401 -0.0274161 0.0217759 0.0636781 0.00947755 0.00273775 0.00921897 -0.025145 0.0405414 0.0134134 0.0462344 -0.00844013 -0.0853912 -0.0115073 -0.0320688 -0.0184931 0.0043325 0.043763 0.031857 0.0382572 0.0344492 0.0370357 0.0071795 0.0468341 0.00846547 0.0849233 -0.0403749 0.0556232 0.0177547 0.0296108 -0.0102133 0.0719808 0.0133442 0.066081 -0.00331895 0.0120712 -0.00101701 -0.0183028 0.0124241 -0.0243532 -0.0466181 -0.00595101
so 0.0156 0.0764119 0.0714732 -0.0181112 0.0631043 -0.0372417 -0.0548373 -0.0657569 0.0612416 0.0567441 -0.0266948 0.0123889 -0.050788 0.0423276 0.00621122 0.0115265 -0.0301981 -0.0366449 -0.0344222 0.0303347 -0.0204985 -0.0571038 0.0624791 -0.0251272 0.0246843 -0.0147545 -0.0162049 0.00481595 0.0472237 -0.0168921 0.0969604 -0.0897711 0.00473256 -0.0533961 0.0304484 -0.0001432 -0.00173893 -0.0450185 0.0420598 0.0758834 -0.0608005 -0.0300998 0.0379378 -0.00414343 -0.0657331 -0.0174468 -0.0285085 0.0124583 0.0336025 0.0206559 -0.0356179 -0.013423 0.0308489 -0.0649302 -0.0207926 -0.00771687 -0.043697 0.0530247 0.0349058 -0.00628883 -0.028038 -0.0149622 0.00677943 0.00288708 -0.00987802 -0.0773471 -0.00527517 -0.0146392 -0.059247 0.0111018 -0.028377 -0.0134387 -0.0769555 -0.0363742 -0.0344367 0.0139895 0.0107942 -0.048777 -0.0455033 -0.0401102 0.0503716 -0.0153218 -0.0254721 0.0311035 -0.034357 0.0299334 -0.0970628 -0.0237536 0.0719515 0.0529997 0.0729045 0.0737016 -0.062142 -0.0348345 -0.00401028 -0.0114208 -0.014242 0.0438702 0.0367776 0.0579738
old -0.020546 -0.00915695 0.0344388 -0.0337428 -0.00374384 0.0116727 -0.0106125 -0.0108234 0.0580702 -0.00985141 0.0852415 -0.016119 0.0605216 -0.00396487 -0.00229049 -0.0338511 -0.0344387 0.0186529 0.0140459 0.00587531 -0.00433011 -0.0305691 -0.0511319 -0.0509321 -0.0788895 -0.0723467 -0.00940649 0.0437972 0.0827971 0.0577614 0.022165 0.0431525 -0.0733584 -0.0121924 -0.0276987 -0.0303715 0.0384477 -0.0625197 0.0482142 -0.0558895 -0.00857431 0.062212 -0.00047575 -0.00165763 0.0273905 0.00106306 0.0247838 -0.0385812 0.0368288 0.00246194 -0.0512241 0.0474517 -0.0108146 -0.0572239 0.0783334 0.00472094 -0.0461153 -0.0160585 0.0163132 0.00491042 -0.0191437 0.0305081 0.0590536 -0.0631158 0.0226099 0.0196732 0.0428712 -0.0770453 -0.00388154 -0.0685886 -0.00080754 0.0543469 -0.0212585 0.0297356 0.0583242 0.0244966 -0.00418989 -0.0110878 0.0353786 0.0315629 0.000741181 0.00818159 -0.0876593 0.0293856 0.00694046 0.0527578 0.0350911 -0.0695695 -0.0364374 -0.00488725 0.0348273 -0.015346 -0.0319449 -0.0204198 0.0552624 0.0639577 -0.0134815 -0.00852689 -0.0281684 0.0431189
one 0.0707741 0.0473421 -0.0278137 -0.0312488 0.0344785 -0.0101449 -0.0309527 -0.00656992 -0.00506647 -0.019043 0.0152698 0.0382632 0.019907 0.0133956 0.0561734 -0.0504213 0.0657603 -0.0170419 -0.0257285 -0.00854056 -0.0389654 -0.0363875 -0.0108335 -0.0601103 -0.0700038 -0.00509606 -0.00936453 0.0273305 0.0472399 0.0390038 0.0221048 0.037455 -0.0353223 -0.00484264 0.00960675 -0.0222727 0.0568913 -0.036217 -0.0456392 -0.0333592 -0.0307968 -0.0162552 0.0173972 0.00784569 -0.00283813 0.0254042 0.0760968 0.0307228 0.00568369 0.0603948 -0.0485443 0.0506042 0.010122 -0.00434462 0.00219176 -0.0378542 0.0175343 0.05551 -0.0130325 0.0311728 0.00899843 0.0280822 0.000377576 -0.0297058 0.0253811 -0.0349767 0.0320425 -0.0553863 0.0183019 0.0212094 -0.0472838 0.020222 0.0130068 0.00217262 -0.0226869 -0.0306312 0.010755 0.0213316 -0.0145953 -0.00663969 -0.0340458 0.051502 -0.0393719 0.0122154 -0.0163956 -0.00968038 -0.026301 -0.0297907 0.00589812 0.0120725 0.052182 0.0152193 -0.0356816 0.00170643 0.00309487 0.0283758 -0.0364981 0.0162068 0.00853968 0.0495809
its 0.0192102 0.00907882 -0.0162414 0.000499535 0.0298645 -0.0165815 0.0187507 -0.0639323 -0.0204481 0.081429 -0.0412959 0.0874303 0.0266538 0.0671797 0.0261196 -0.0413431 0.0364016 -0.0527335 -0.070856 -0.0328139 -0.020271 0.0095732 -0.047033 -0.022745 0.0461808 0.0362489 -0.0684238 -0.0326531 0.0314281 -0.0347919 -0.0011342 0.0287174 -0.0209823 -0.084444 0.0050945 -0.0336903 0.0456817 -0.00285744 0.0289139 0.0335328 0.0102666 -0.0382002 0.0419474 -0.0159359 0.0617427 0.046082 0.00781225 -0.00675876 0.00766324 0.0130067 -0.0533204 0.0606522 0.0230951 -0.0288975 0.000228175 -0.0373865 -0.0289229 0.00926718 0.0551279 -0.0523301 -0.0131443 0.00340069 0.0239798 -0.034337 0.0509063 0.0522056 0.043043 0.0263807 0.00520097 -0.0531028 -0.0579113 0.054771 -0.0488955 -0.0215177 -0.0495374 0.06594 0.0128494 -0.00438711 0.0333253 -0.0195599 0.00176346 0.0194304 0.0305593 0.0775772 -0.00836581 0.0335979 -0.0424157 -0.0400971 -0.0188076 0.0451968 0.0474942 0.0378446 -0.0510696 -0.0816094 0.00231957 0.0148206 -0.0249176 -0.0314044 -0.0387201 0.0468903
or 0.0359518 0.0319318 -0.00952104 -0.0362768 0.0185415 -0.0416075 -0.0298062 0.00197134 0.00637226 0.0546495 0.0358794 -0.000298067 0.0558009 0.0163521 0.0674845 -0.037871 0.0266923 -0.028295 -0.0289038 0.0633824 -0.0345739 0.021401 -0.0178276 -0.034244 -0.0374644 -0.0245322 -0.0590062 -0.0115755 0.0439521 -0.0171236 0.033987 0.000992393 -0.060936 -0.0489151 -0.0512878 -0.0233711 0.0218392 -0.0732576 -0.0326237 0.017608 -0.0493292 -0.00449095 0.0428593 -0.0048027 0.0499097 -0.00316361 -0.013227 0.0187097 0.0425963 0.00351884 -0.0504674 -0.008554 -0.0308448 -0.0336781 0.025423 -0.0590497 -0.011529 -0.011032 -0.00108141 -0.0451935 -0.0662732 0.0599181 0.0176701 0.00353011 0.0389888 -0.0346358 0.0270159 -0.0479735 0.0188557 -0.0234768 -0.0699342 -0.00497944 0.0155623 -0.0720828 0.023646 0.031891 0.059383 0.0317631 0.0526927 0.0509577 -0.0314157 0.0284392 -0.0259114 0.00383604 0.00135683 0.00874308 -0.0574939 -0.0105944 -0.0216847 0.0418709 0.0510137 0.00370001 -0.0567615 -0.00623374 0.0585275 0.0682309 -0.0070047 -0.0317644 -0.0360963 0.0269027
their 0.0351665 0.0512327 -0.0374825 -0.00503236 -0.0116911 -0.0184547 -0.00046833 -0.0241115 -0.00194342 0.0691342 -0.0538304 0.0566916 0.00168393 0.0830612 0.0817357 0.00215894 0.000308785 -0.0352799 -0.0405627 -0.0156709 0.00479452 -0.041024 0.00439403 -0.00661121 0.0243726 -0.000357517 -0.0814866 -0.0345816 -0.0233382 0.0172001 -0.0111584 -0.00929295 -0.0160145 -0.0911508 -0.0215579 -0.0422154 -0.0154681 -0.0176715 -0.0433577 0.0505293 -0.019754 -0.0162051 0.00922428 0.02436 0.0219499 -0.0196645 0.074389 -0.0517474 0.0237602 0.0303931 -0.0230065 0.0834446 0.00899053 -0.0805091 -0.0169407 -0.0404066 0.0203675 0.0831354 -0.0106559 -0.0611607 -0.0124233 0.0455515 0.0362249 0.00779039 0.0332554 0.0294108 0.0173526 0.0210039 0.0262483 -0.0862806 -0.0350725 0.0331788 -0.0302071 -0.0173369 -0.0252778 0.0360076 0.0339704 -0.0678135 -0.0398358 -0.0153591 -0.0460315 0.0899974 0.0559867 0.0515992 -0.00636597 0.0382391 -0.0246558 -0.0437865 0.032513 0.0153563 0.058457 0.0994836 -0.0250161 -0.0773697 0.02639 0.00742037 -0.0822624 -0.0421864 0.033046 -0.0169285
nahum 0.0541076 0.0451232 0.0531416 -0.0186046 0.0226715 -0.0319583 0.00170345 0.00365876 0.0922736 0.0636031 -0.0205522 0.0550042 -0.0224843 0.0415051 0.0590957 0.0238235 -0.00724275 -0.00489212 -0.0106382 -0.0248804 -0.0124248 0.000381978 -0.00266598 -0.0132014 -0.0512013 -0.0173398 -0.00729576 0.0273666 0.0236807 -0.0129578 0.0428766 3.95296e-05 -0.00549145 -0.00526313 -0.0426939 0.0163915 0.0294853 -0.0493853 -0.035207 -0.0522121 -0.0191338 -0.000702189 0.0724932 -0.0594393 0.0405878 0.000906629 -0.0194212 -0.0650158 0.05522 0.00207412 -0.0242051 0.0425777 0.01967 -0.0116153 0.0156126 -0.0166185 0.0228761 -0.0181146 0.0585975 -0.057359 0.0258929 -0.000872605 0.0739985 0.00707736 0.000204564 0.01561 -0.0174744 -0.0660093 0.0582169 -0.0497422 -0.0385599 0.0319886 -0.0464361 0.00496401 0.065003 -0.00110378 -0.0168019 -0.0723828 0.0607392 -0.00356859 -0.00512994 0.0149376 -0.0192166 0.0317503 0.0247274 0.0155314 -0.0298189 -0.0387377 0.0106296 0.00914689 -0.00317754 0.0859087 -0.00924883 -0.0450944 0.00231286 0.0286763 -0.0113962 -0.0377682 -0.0374643 0.0769989
been -0.0185013 0.0424438 0.110589 0.0388449 0.0880762 -0.0830351 -0.0508443 0.0224819 0.031448 0.046543 0.0392074 0.0766592 0.0143052 -0.0281278 0.0432984 0.0234729 0.0311343 -0.0588009 -0.0366325 0.0150306 -0.0311867 -0.0542951 -0.0641605 -0.00413126 0.026429 -0.0370052 -0.0839338 0.0124499 0.0165876 0.0232029 0.105916 -0.0526294 0.0511186 -0.120435 0.0132224 -0.0490368 -0.0546242 -0.0312689 -0.0487335 0.0487294 -0.0254569 0.0441647 -0.0163769 -0.0686445 -0.0851827 0.0176744 0.000194139 -0.00368481 0.0444426 -0.0364593 -0.0585965 -0.0285018 0.0561944 -0.0510549 -0.114406 -0.0507018 -0.00909265 0.0572455 0.0171501 -0.0741953 0.00319064 -0.043197 0.0179484 0.050394 0.00753219 -0.155114 0.0317475 0.0501206 -0.0756288 0.0464628 -0.0251449 0.00121138 -0.0451388 -0.0563429 0.0114402 0.0927547 -0.0666527 -0.0515321 -0.0347403 -0.0692425 0.0633101 0.0889743 0.0291087 0.100026 -0.0527254 0.0251466 -0.0860545 0.0642428 0.0191483 0.0630469 -0.0471682 0.0969675 -0.0707892 -0.0134592 -0.0563556 -0.0434386 -0.0421241 -0.033506 0.0333922 -0.0332889
seemed 0.048478 0.0719489 0.0361995 -0.0263572 0.0951776 -0.00398756 -0.002016 -0.0372473 -0.0187958 0.00382024 -0.0410712 0.00946612 0.110514 -0.00857987 0.0210158 -0.00285588 0.0931042 -0.0627691 -0.0700441 0.0209387 0.0173163 -0.0444897 0.0116252 -0.0143131 -0.0178671 -0.00265662 -0.0687948 0.00705466 0.0284428 -0.0645113 0.064281 -0.0477696 -0.0456823 -0.0706559 -0.0230487 -0.0142197 0.0185102 -0.0836133 -0.0847161 0.0241135 -0.0492569 0.0229186 -0.00218441 -0.080375 0.0360107 0.0476301 0.0179362 -0.0337005 -0.00365158 0.0134256 -0.0352299 0.04983 -0.0132759 -0.0650532 0.0118221 0.0094158 0.0199156 0.0275072 -0.0211877 -0.0948468 0.00762274 0.016657 -0.0517267 0.0249021 0.0749737 -0.0387315 0.0483088 -0.0404291 0.058833 -0.00872249 -0.041868 -0.0338744 -0.0491364 -0.0818912 0.0210313 0.071919 0.0235768 -0.000219345 -0.0715976 0.0373978 -0.0709069 0.0750009 0.0593557 0.0357308 -0.0922063 -0.0448186 -0.0161811 -0.0191484 -0.0514097 0.0291518 0.0458061 0.0403608 -0.0555834 -0.000508303 -0.0524503 -0.0226797 -0.0484413 0.0584676 -0.0662841 0.0532305
an 0.0203545 0.0143265 0.0101353 -0.0594763 -0.0296826 -0.0532758 0.0189902 -0.00749881 0.0474843 0.050268 -0.00554023 0.0242888 0.0419316 0.0793129 0.0876907 -0.0339325 0.000179149 -0.0320967 -0.0579366 -0.0395615 -0.0351474 -0.0488461 -0.0731414 -0.0340519 0.0180184 -0.038601 -0.00195011 0.0287232 -0.019831 -0.00698459 0.0258638 0.0185686 -0.00102202 0.00379981 -0.0468139 -0.0235484 0.00554131 -0.0734348 0.0371193 0.0372868 0.00493811 -0.0266565 -0.00240374 0.00790907 0.0137682 0.00787304 0.036753 -0.0176684 0.0513548 0.033146 -0.0713677 0.00316287 -0.0272245 0.0270197 0.00461132 -0.0348846 0.0354229 0.0438867 0.017229 -0.0302669 -0.0117595 -0.00290615 -0.00909005 -0.0345621 0.0257816 -0.024056 0.00513327 0.0294709 0.0418258 -0.0189792 -0.0106285 0.0298296 0.00317392 -0.0164206 0.0238487 0.0528399 0.0042937 0.0103456 0.0423971 0.0281441 -0.0037034 0.0636348 -0.0271894 0.0509934 0.033648 0.00867285 0.0235702 -0.00370432 0.0381057 0.0805559 0.0703735 0.0471783 -0.0714825 -0.0719959 0.0415599 0.0393071 -0.0555648 0.00424259 0.0277004 -0.00809965
before 0.0422013 0.0597341 0.0210247 0.00659647 0.0580988 -0.0369599 0.0325571 -0.0594682 0.0757163 -0.0208785 0.0588231 -0.0196369 -0.0128844 -0.0228838 0.036307 -0.0495573 -0.00751342 0.0257938 -0.0416555 0.0108359 -0.0372501 0.0151204 -0.0396098 -0.00820335 -0.0164207 -0.030806 0.0150843 0.0055937 0.0359533 0.024258 0.0558176 0.0497335 -0.0182489 -0.0247699 -0.00156001 -0.0245109 0.0107075 0.0187265 0.0192085 0.0216386 -0.0437409 -0.0194238 -0.0140902 -0.0689785 0.0209203 0.0407041 0.00289247 0.0356088 0.00732601 -0.00109397 -0.026612 0.013144 -0.0238821 0.0304529 0.0252114 -0.0441635 0.0176053 0.0660812 0.0601633 -0.0349369 0.000989557 -0.0249101 0.0580464 -0.0125526 0.0597412 0.00573216 -0.0185219 0.00712451 -0.0230603 0.0348411 -0.068311 0.0138511 -0.00176667 -0.0434671 -0.000229659 0.0572592 0.04006 0.0110816 -0.0157799 0.0219891 -0.0426643 0.0280221 -0.0383131 0.0516761 0.0187663 0.0539034 -0.0146488 -0.0601872 -0.0130631 -0.00553738 0.0554547 -0.00168529 -0.0459668 0.00858194 0.0283546 -0.0127608 -0.0209686 -0.0411331 -0.0335683 0.0048675
out -0.000586986 -0.00197607 -0.0259637 0.00241396 0.0225682 -0.0380254 -0.0522074 -0.0434614 0.011017 0.0540055 0.0781852 -0.00852803 0.0400839 -0.00247227 0.0405199 -0.0670168 -0.0314745 0.0071002 -0.022013 -0.0143883 -0.0762995 -0.0067298 -0.00659736 0.00256973 -0.00318609 -0.0269218 -0.00617508 0.0184142 0.0502546 0.0570999 0.0141168 0.0450421 -0.0211145 -0.0380187 -0.0406137 -0.0387606 0.0422223 -0.0328034 0.0458887 -0.0235913 -0.0190111 0.0638064 0.0047583 0.00620128 0.00515638 0.0657389 0.00955721 -0.0013909 0.0224468 0.0219023 -0.0313925 0.0582474 -0.0874764 0.0136116 0.0233998 0.0269732 -0.0142117 0.03167 -0.00246239 0.0516588 -0.0219095 0.0684521 0.0500538 -0.0608189 0.0464865 0.0758445 0.0383789 -0.0845317 -0.0107419 -0.0362281 0.00877445 -0.00732357 -0.0248698 0.00270765 0.0741424 -0.00241902 0.0677828 0.0398017 0.0568269 0.0526333 0.0110715 0.0174818 -0.0455652 0.0389672 0.00771008 0.0653549 0.0304182 -0.0571453 0.0453738 0.00861397 0.0178938 0.00961582 0.0068244 -0.0134649 0.0231155 0.0398169 -0.0384352 -0.0270483 -0.0416453 0.0301254
very 0.0489464 0.0292108 0.0544294 -0.0232839 0.031434 0.00238751 -0.0189931 0.0220333 0.0498176 0.0404234 0.0375228 0.0601671 0.0424029 -0.00410634 0.034536 -0.0147959 -0.0111319 0.0244523 0.015436 0.00535451 -0.0298839 0.0289341 -0.0620832 -0.043667 -0.0453632 -0.0362744 -0.0247198 0.00065592 -0.00203885 0.0158 0.0687231 0.0333896 -0.00229616 -0.020974 0.0120331 -0.0237256 0.0469326 -0.0341565 0.0289499 -0.0477831 -0.0284694 0.0228168 0.0368976 -0.0262035 -0.0310505 -0.0295661 0.0398795 -0.0126369 0.0129246 0.0448447 -0.0753808 0.0633336 0.0102834 0.013382 0.0131578 -0.0757341 -0.0393692 0.0287235 -0.0023052 -0.0196417 -0.0192377 0.0276136 0.0307387 -0.0118525 0.0235178 0.017398 0.00678571 -0.0113511 -0.0446923 -0.0479904 -0.00495474 0.0444431 -0.0179804 -0.00875509 0.010854 0.032928 0.00793009 0.0384867 0.0673701 -0.0180105 -0.00122505 0.00192686 0.00725133 -0.0033055 0.0383273 -0.0100345 -0.0659275 0.000253577 0.0129827 -0.0389598 0.0520848 0.07003 -0.0472748 -0.00846637 -0.0449082 0.0542777 -0.0511808 -0.0490804 -0.0638592 -0.00920781
have 0.0682638 0.0605898 0.107591 -0.0495722 0.104013 -0.083278 -0.0340723 -0.0447115 0.0551388 -0.0174025 0.0464408 0.00225548 0.0468868 0.030377 0.0199708 0.041023 0.0263128 -0.0180796 -0.0447123 0.0136458 0.0313472 -0.0310019 -0.0678635 0.0421712 -0.0462967 -0.0196835 0.0171154 -0.0348776 0.00738213 0.0470254 0.0385378 -0.0124877 0.0321316 -0.0119784 -0.05476 0.0374283 0.0291442 -0.057907 0.0279851 0.00403826 -0.0372997 0.032471 -0.040938 -0.0831929 -0.0312373 0.0243213 -0.0516904 0.00241553 0.00576356 0.042843 0.0110048 0.000917651 0.0422177 -0.0950751 -0.0251369 -0.035749 -0.0337764 0.0594555 0.016723 -0.0365548 0.0244859 -0.0432478 -0.036164 0.00136695 -0.0270272 -0.0763134 0.0491362 -0.04733 0.00251708 0.0116593 -0.0155005 -0.00713326 -0.0822137 -0.0299199 0.0525658 0.0297186 -0.020495 0.0342265 0.00765279 0.00910131 -0.0345074 -0.030903 -0.0322933 -0.0145471 -0.0121387 -0.0182575 -0.0539467 -0.0560393 0.0260735 0.0835892 0.0228985 -0.0186484 -0.0286924 -0.0317647 0.0344909 -0.00534907 -0.0221095 0.0328476 0.00240716 0.0607575
where 0.0385976 0.0114388 0.0484856 -0.0123433 0.000743266 -0.078701 -0.0122726 -0.0547957 0.00522552 0.0392692 0.0747329 0.0419853 0.0766512 -0.0324673 0.0222777 -0.00748494 0.00959338 -0.0449641 -0.0337444 0.0708679 0.0105917 -0.00850257 -0.000295927 -0.0376336 -0.0691809 -0.0232661 0.0169417 0.00247662 0.0506499 0.0240131 0.0400034 0.0281021 -0.0765959 -0.0572017 -0.0778164 0.002266 0.0667724 0.0364354 -0.0277662 -0.078231 -0.0454166 -0.00140248 0.0247953 0.0159618 -0.0328493 0.0166281 0.0316989 0.00169161 0.03546 -0.00359812 -0.0674122 -0.00668673 -0.0475106 -0.0264432 -0.00842681 -0.0649465 -0.0262224 0.0440696 0.0653488 0.0292177 -0.0400163 -0.00270758 0.0700223 -0.0252531 0.0627688 0.0440299 -0.0172773 -0.0636899 0.0270637 0.000887909 0.0168838 0.0394752 0.0105955 -0.0272026 0.0603043 -0.0121477 -0.00488876 0.0222584 -0.00080726 0.0618398 -0.0573647 -0.0107576 -0.0540809 0.0356463 0.0518541 0.0711021 -0.0528691 -0.0241177 0.0259649 0.0307943 0.00199756 0.00942637 0.0141768 -0.000676086 -0.00565521 0.0511601 0.0260874 -0.0425052 -0.00982493 0.0239334
city -0.00922519 0.0588638 0.0137665 0.0200453 -0.0494926 -0.049595 -0.0414431 -0.0697762 0.0162367 -0.0186335 0.0345672 -0.0675796 0.0465948 -0.0229773 -0.00316318 -0.0184678 -0.0623255 0.0569793 -0.000494281 0.104938 -0.0568522 0.0371215 0.012624 -0.0104549 -0.0972829 -0.0352658 0.0300587 0.0339321 0.0930263 0.0499936 -0.00941117 0.100719 -0.0365011 0.00651801 -0.0494703 -0.0346489 0.0144999 0.0536026 0.0508342 -0.0603843 0.00816845 -0.00423533 0.0631542 -0.0280507 0.0383438 0.103338 0.0416 0.044254 -0.0419985 0.00546255 -0.0187246 0.0224491 -0.0535421 0.02806 0.129492 -0.0708928 -0.067258 0.0022745 0.0410561 0.0649721 -0.100294 -0.0379158 0.106037 -0.0289111 0.0556053 0.0982677 -0.00790367 -0.0155597 0.000818707 0.0623994 0.00303085 0.0126719 0.0422778 -0.00526379 0.0307921 -0.0761754 0.0747654 -0.0145212 0.0545739 0.0998923 -0.0831833 -0.010049 -0.0238839 0.0424579 0.118441 0.0947295 0.0280078 -0.0646638 0.0585958 0.0450688 0.032454 0.0448443 -0.00768974 0.0388877 0.0614705 0.065057 -0.00288886 -0.0416444 -0.0944771 0.0726114
only 0.0309987 0.016508 -0.0108463 0.0133194 0.00498287 -0.0749953 -0.0315143 -0.0374865 0.0250294 -0.0182179 -0.0321145 0.0350208 -0.00745123 -0.0220008 0.0410979 -0.0714634 0.0173701 0.0145312 -0.0287708 0.0673118 -0.0554279 -0.0231575 -0.0560065 -0.0187181 -0.021921 0.00650899 0.00183231 -0.014356 0.0117052 0.0316206 -0.0094918 -0.0207785 -0.000762375 0.00983515 -0.0607413 -0.0161851 0.0809634 0.02284 -0.00740388 0.0149985 0.0094362 0.0430262 0.0101801 -0.0192495 0.059315 0.00202406 0.0407392 0.0677151 0.0362777 -0.00418553 -0.00273179 0.00842447 -0.0595276 -0.0626672 -0.0348101 -0.0635473 -0.0223847 -0.0136027 0.0115583 0.00923426 0.0160508 0.0516296 0.00237068 -0.0107792 0.0133487 -0.0491185 0.013064 -0.00509331 -0.0258354 0.0401477 -0.00924381 0.0457005 0.0089396 0.0186938 -0.00893309 -0.000353777 0.0471107 -0.0105304 0.0425879 0.000786372 -0.0644812 0.0506997 0.00699192 -0.00470631 0.0656555 0.067232 0.00374839 -0.0438811 0.0641638 -0.00459456 0.0276032 0.0759634 -0.006414 -0.0484615 0.0442436 0.0551339 -0.0631659 -0.0542008 -0.0267754 0.0215387
into 0.0123388 0.0147821 -0.012755 0.0253282 0.0420167 0.00356537 -0.0521087 -0.00144093 0.0347608 -0.00537413 0.0919214 0.00792433 0.0517064 0.0191199 -0.00272158 -0.0407081 -0.0195262 -0.0331773 -0.0176918 0.0631963 -0.0118517 -0.0307975 -0.0549002 0.00958636 -0.0809887 -0.0712606 -0.0531098 0.0342177 0.068123 0.0275647 -0.0310576 0.047677 -0.00271751 -0.0414049 -0.0701129 -0.0508093 0.0171117 0.0376931 -0.0602779 -0.00729708 0.0142149 0.081265 -0.0112845 -0.0375126 -0.018037 0.0791478 -0.0136469 0.0272356 0.0390297 0.0152121 0.0206792 0.0104183 -0.0408865 0.030358 0.0300593 -0.0167843 -0.0724786 0.0209151 0.0497116 0.0430782 -0.012529 0.00747284 0.076682 -0.00416349 0.0741548 -0.00284794 -0.0388602 -0.0344944 -0.0168684 0.0134549 -0.0177251 0.0318922 -0.0299438 0.00383482 0.0711402 0.0468066 0.0743036 0.0135344 0.0160503 0.0171949 -0.0288197 -0.0125174 -0.0406663 0.0425004 0.0339207 0.0453497 -0.0651005 -0.0721766 0.0614501 0.0483889 0.0503338 -0.0113381 -0.0252132 0.00815003 0.0578226 0.00176228 0.0271462 -0.037327 -0.0421873 0.0732004
man -0.00497022 0.0371544 -0.0170024 -0.0010681 0.0364908 -0.0315541 -0.0236397 -0.0604783 0.0267358 0.022263 0.0358394 0.00281435 0.0592408 0.0258523 0.0508144 -0.0742218 0.029767 0.0440926 -0.0612767 0.0525098 0.0186196 -0.0236175 0.00829721 -0.0416934 -0.0461678 -0.0118639 -0.0257962 0.0426304 0.0292888 0.0353151 -0.0228719 0.0510758 -0.0518471 0.0198009 -0.0688093 0.0051988 0.0124016 0.0457076 -0.0426321 -0.0142025 -0.0189457 0.0642621 0.0269696 -0.00465592 0.0390285 0.0500405 0.0347239 -0.0374445 0.00339648 0.0521407 -0.00586382 0.0158191 -0.0135181 -0.0129226 0.0603573 -0.00212816 -0.070952 0.0380729 0.0323877 0.00500276 -0.0155626 -0.025923 0.0443199 -0.0486152 0.00793637 -0.00764686 -0.0343926 -0.0135307 -0.0184363 0.0221241 -0.0504687 0.0455749 -0.0444623 0.00272049 0.0780868 0.0234323 0.0332657 -0.00189718 0.0664844 0.0348904 -0.0574325 0.0481681 -0.0750935 0.0473257 0.0447195 0.0540817 -0.0688701 -0.0692897 0.00421899 0.0550682 -0.034401 0.0529567 -0.0132618 -0.0483147 0.0375145 0.0429334 0.0530762 -0.0274509 -0.0418925 0.000431977
strange -0.0104865 0.0149995 0.0407151 -0.0143595 0.0460302 0.000881848 -0.02539 -0.0108546 0.0267882 -0.0062013 0.0314227 0.0427949 0.0155342 0.0332952 0.0171759 -0.0259391 -0.0393444 -0.00441596 -0.0593027 -0.000196599 -0.0269235 -0.0221578 -0.0210222 0.0142061 -0.0297354 0.00261117 -0.0367746 0.0661292 0.0462933 0.040548 -0.00381821 0.0447632 -0.0460128 -0.0199342 0.0122097 -0.0379739 0.0493667 -0.0239838 0.0249958 -0.050013 -0.0123678 0.00412756 0.0755886 0.0157972 0.0381396 0.00818098 0.036001 -0.0358198 0.0170092 0.00746008 -0.0678175 0.0321621 -0.0545879 -0.0235494 0.0415438 -0.039322 -0.0137078 -0.0163208 -0.000825031 -0.0438898 -0.0212907 -0.0149746 0.0155898 -0.0748627 0.0650958 -0.00382756 -0.00623521 -0.0288069 0.00815017 0.00251559 -0.0394124 0.0474067 0.0117209 -0.0138347 0.0503339 -0.0453939 0.03814 -0.0219108 0.035348 -0.0141483 -0.0115291 0.0325844 -0.00454398 0.0532975 0.00919765 0.0417143 -0.0284578 0.00188017 -0.029048 0.0372857 0.0486877 0.0177228 -0.0174812 -0.0416555 -0.00818706 0.018338 -0.0317901 -0.068578 0.0162118 0.0155329
what 0.0728996 0.0199367 0.057048 0.0230345 0.0574952 0.00269193 -0.00981534 -0.0236727 0.0291216 0.0191425 0.0130363 0.0644988 -0.0054072 0.0219462 0.0277163 0.0307046 0.0555807 0.00998765 -0.0603216 -0.0123769 -0.0685693 -0.0462018 -0.0483562 -0.0400478 -0.0670118 0.0200868 0.00229422 0.0538859 0.0277339 -0.0233171 0.0346622 -0.055278 0.0143309 -0.00978393 -0.00133774 -0.0264512 0.0215322 -0.0227047 0.0280819 -0.0256625 -0.0521295 -0.00929528 0.0435056 -0.0251683 -0.0220924 0.00491986 0.0089923 0.0134656 0.0405055 0.0744946 0.0106007 -0.00262617 0.0380224 -0.0475615 0.0409327 -0.0394442 0.0139579 0.0769667 0.0191034 -0.071958 0.00845326 0.00453677 -0.0136801 -0.00661513 0.0130942 0.0234551 0.0526927 0.00172023 0.030963 0.00921828 -0.0136498 0.0391076 -0.0357519 -0.0243021 0.039929 0.00711641 -0.000999397 -0.0160735 0.039392 0.0386611 -0.0143223 0.00360176 -0.0172154 0.0369099 0.0174246 0.0529146 -0.0723638 -0.000919676 0.0489461 0.0715263 0.021624 0.0218378 -0.0429486 -0.0521178 -0.0186751 -0.00613113 0.0019772 -0.0525872 -0.0175352 0.00956427
place 0.0487002 0.0300488 0.0320768 0.0226975 0.0273934 -0.00430659 -0.0249014 -0.0713505 0.0638296 -0.0517652 0.0174995 0.0341824 0.00819682 0.0241976 -0.00281464 0.00524044 -0.0201666 0.0278303 -0.012254 0.0728426 -0.0532441 -0.00479194 0.0291992 -0.0257529 -0.0179695 -0.0472215 0.0546661 -0.007707 0.0759296 0.0129433 0.00099931 -0.00560244 -0.0403544 -0.000445757 -0.056065 0.00635281 0.000512943 -0.0237828 -0.0319662 -0.0184967 -0.0412171 -0.00345426 -0.0334173 -0.0735058 -0.0479928 0.0025966 -0.000380024 0.0632597 0.0141407 0.0516943 0.0346216 0.0230088 -0.0153835 -0.0617717 0.0136365 -0.0351884 -0.0669248 0.0163133 0.0614523 0.0609261 -0.0237165 -0.0104356 -0.00170631 -0.0362561 0.0608831 -0.00389309 -0.0235389 0.00966568 -0.0294399 -0.00935989 0.000297873 0.00284722 -0.0399827 0.0208643 0.071852 0.0543762 0.0156136 -0.0107141 -0.00569549 0.0584893 0.00237293 -0.0399311 -0.0775546 -0.0159655 0.0196851 0.0634873 -0.0400248 -0.0654328 0.0352488 -0.0234035 0.0536515 0.0190529 -0.0115902 0.0304151 -0.0274507 0.0549893 -0.028045 -0.0299879 -0.0155182 0.0405106
like -0.00199276 0.0308009 0.0309609 -0.035289 -0.0106938 -0.0415977 -0.0272164 -0.0648333 0.052932 0.0450862 0.0601468 0.0375251 -0.00228809 0.0499144 -0.0121158 -0.0126368 0.000800045 0.0212472 -0.0386433 0.0582632 -0.0585771 -0.0566675 -0.0377054 -0.027501 -0.0313542 0.00588896 -0.00236748 0.0126853 -0.00985238 -0.00738493 0.0355344 -0.0292703 0.00567504 -0.00155994 -9.90522e-05 -0.0330813 0.0346784 -0.032457 0.0301547 0.0136198 -0.0176912 0.00209899 -0.0136495 0.0089542 -0.00873053 0.0748997 0.0513574 0.0620659 0.0517449 -0.00455129 -0.0323648 -0.000134907 -0.0196827 0.01873 -0.0392129 0.00521191 -0.0126696 0.0125818 0.0408303 0.0166827 0.0136356 -0.0199671 0.00850306 -0.0396264 0.0023956 -0.0188243 -0.0264924 -0.022809 0.0313017 -0.0222327 -0.0629435 -0.0285731 -0.0476841 -0.00614071 0.017802 0.00640979 0.0181485 0.0348906 0.0441814 0.0537233 0.00195466 0.0118602 0.0132147 0.0143755 -0.000498139 0.0163508 0.00558769 -0.0224015 0.0504004 0.00756335 0.0618097 0.0070992 -0.0498627 -0.0293965 0.034493 -0.00739468 -0.0434199 -0.0339452 -0.0140744 0.0451318
about 0.00838302 0.0687999 -0.0204522 -0.0647728 -0.0120635 -0.0726496 -0.00628944 -0.00706346 0.0129922 0.046518 0.0464458 0.0355475 0.0715728 0.0517294 0.0292143 -0.0539841 0.0235503 0.00731447 -0.00453595 0.0648391 -0.0374629 0.00528144 0.0160233 -0.0255126 -0.0645727 -0.0387488 0.00872512 -0.0198378 0.0190467 0.036078 -0.0206912 0.0453851 -0.056842 -0.0393906 -0.0504291 0.0173336 0.0608137 -0.0218258 0.0350155 -0.0107127 0.0117268 0.044911 0.0413475 0.0115059 -0.00362643 0.0496986 0.0376309 -0.0443439 0.0526579 0.0702556 -0.0256312 0.0352372 -0.0317425 0.0148808 0.0204162 -0.0270765 -0.0377274 0.0576404 0.0325838 0.0136194 -0.00944951 0.0619814 0.0364484 -0.0184909 0.044398 0.0266576 0.0112955 -0.0156899 0.0201675 0.0267289 0.0136438 -0.00479058 -0.029988 0.0184486 0.0200412 0.0102925 0.0537979 -0.0470884 0.0421412 0.05898 -0.020403 0.00980546 -0.0687267 0.0248556 0.0319702 0.0103343 -0.00708402 -0.0259911 0.0510242 0.0157914 -0.00153704 -0.00312479 -0.0292429 -0.0649001 0.0068104 0.0469342 -0.0372612 -0.0298926 -0.00826295 0.0526772
through 0.0135685 0.0630341 0.0137613 -0.0481617 0.0146737 -0.0853056 0.0078059 -0.0624404 0.078865 0.0124192 0.0716303 -0.0362532 0.0157713 -0.0172746 0.0160309 -0.0264404 0.0362471 0.0195805 0.01536 0.0701237 -0.0370951 -0.0194557 -0.0630415 -0.0263488 -0.055751 -0.0860357 0.0185384 -0.00657972 0.0965003 0.0275087 -0.000869369 0.0526814 -0.0628464 0.0202694 -0.0226908 0.0359652 0.0851802 0.0466564 0.00344697 -0.0450538 -0.0692235 0.0446972 0.0258761 -0.015087 0.0047554 0.0970307 0.00952188 -0.000676243 -0.00708347 0.0145076 -0.0538977 0.00113931 -0.0584682 0.0322936 0.0711121 -0.0672841 -0.0880275 -0.00168294 0.0552255 0.0162721 -0.0765543 0.0183766 0.0602986 -0.0390082 0.0442985 0.0647898 -0.0562852 -0.0712199 0.010149 0.00464191 -0.0477399 -0.0208187 0.00715792 0.0202916 0.069193 -0.00336258 0.0918468 0.0181116 0.0281899 0.0360576 -0.0304736 0.0284451 -0.043156 0.0332281 0.0890114 0.0344235 -0.0496579 -0.0838958 0.0847842 0.0112713 -0.0212028 -0.0126288 -0.00871869 -0.0335874 0.0508599 -0.00796482 0.0415023 -0.0566363 -0.103688 0.110488
some 0.0543224 0.0215504 0.0116609 -0.0518506 0.0236346 0.0193678 -0.0140557 -0.0141658 0.0434022 0.080106 -0.0066781 0.068411 0.0290332 0.0228793 0.0137668 -0.0435602 0.0317304 -0.046572 -0.0489486 -0.0279689 -0.0731132 -0.0614846 -0.0139577 -0.0325539 -0.045555 0.0347167 -0.0327627 0.0531445 -0.0141365 -0.00467034 0.0468528 0.0246071 0.0244573 -0.0836319 0.0178111 -0.00882786 0.0284964 -0.071387 0.0340669 0.00812795 -0.0273628 -0.0223622 0.0138484 -0.0191149 -0.0203048 -0.0175016 0.00682867 0.0252773 0.0778066 -0.0100895 -0.0554599 0.0129751 -0.00358218 -0.0537631 0.00950183 -0.0162626 -0.0231985 0.0285559 0.0186322 0.00882351 -0.00477266 0.0378774 0.000724797 0.00382731 -0.00315377 -0.037377 0.0341985 -0.0567176 0.0401237 -0.0274395 -0.00969806 -0.01147 0.00742259 -0.0337171 -0.0332464 0.0291744 0.0276199 -0.0435399 0.0220356 0.0411879 0.0106267 0.0227032 -0.0410505 0.0204879 0.0295868 -0.01923 -0.0623345 0.00702851 -0.0054739 0.0311893 -0.00237026 0.0501835 -0.0494219 -0.0668707 -0.000882581 0.0243326 -0.0642008 -0.0646714 0.00819525 0.0501917
did 0.0311241 0.0611136 0.0433797 -0.0378275 0.0636303 -0.0150237 -0.0245217 -0.0355131 0.0417117 0.0525592 -0.0563892 0.0493343 -0.00520009 -0.0119764 0.0391661 -0.0308077 -0.0322934 -0.0507865 -0.0248208 0.0337669 0.00894342 0.0050857 0.0143054 -0.0587887 0.00819308 0.00397691 -0.0293369 0.0345832 -0.00989988 0.0392653 0.0451605 -0.0543061 0.0133209 0.00713043 -2.75914e-05 -0.0311745 0.0453982 -0.0241395 0.0463989 -0.00306837 0.00324235 -0.0535404 -0.00425106 -0.102976 0.0135864 0.010265 -0.0113477 0.0828941 0.03497 -0.0251927 -0.00756881 -0.0172654 0.0520447 -0.0118996 -0.0779363 -0.0594603 -0.0338429 0.0193997 0.0153592 -0.0372117 0.0295936 0.0123568 0.0333368 0.00432079 -0.0169116 -0.0291431 0.0211786 0.0227994 -0.0403624 -0.0657444 0.00378381 0.0042027 -0.0605511 -0.0741125 0.0329211 0.0900062 -0.00513749 0.0199069 -0.0539502 0.0473558 -0.0385435 0.0310123 -0.0251234 -0.007323 0.00222188 0.0479813 -0.0498168 -0.0638258 0.0901968 0.0316275 0.0311541 -0.0123942 0.00253691 -0.0117572 0.0154462 -0.0080512 -0.0357845 -0.0152318 -0.00275366 -0.027169
though 0.0332768 0.0151172 0.02828 0.0133831 0.0286775 -0.0428717 0.0230348 0.024182 -0.00531056 0.029864 0.0365406 0.0295427 -0.00601421 -0.0181838 0.0232564 -0.0620253 0.0510193 -0.0256256 0.0104504 -0.000520862 -0.0347483 -0.0384019 -0.0432149 -0.0229806 -0.0193705 -0.0371216 -0.00995142 -0.00637343 0.0301602 0.0441258 0.032729 0.0349122 -0.0271873 -0.0162177 0.0237813 0.0163267 -0.026153 -0.0524466 0.00661435 -0.026781 -0.0314142 0.0177771 0.0417891 -0.0541415 0.00904991 -0.000700051 0.0241299 0.0124749 -0.010934 0.0329087 -0.00852346 0.00801152 -0.0145298 0.00806247 -0.0721059 -0.047162 0.00133638 0.0506392 0.018482 -0.0568675 0.0393343 -0.0231954 -0.0181477 -0.0567049 0.0411933 -0.0306018 0.00849771 -0.016259 0.0229336 -0.00973051 -0.0101212 0.0421276 -0.0188224 -0.0333348 -0.0192312 0.0580316 -0.00926533 0.0457651 -0.0136025 0.0325539 -0.0346342 0.0358318 -0.0359419 0.0689221 0.0317063 -0.0052903 -0.0668092 -0.0284841 0.0796277 0.0414188 0.0166828 0.0223071 -0.000474431 -0.0549002 0.0152692 -0.00834437 0.0119366 -0.0525102 -0.0485017 -0.0103643
more 0.044704 0.0221776 0.0555322 -0.0375803 0.00500298 -0.0448064 -0.0321848 -0.0739878 0.0582182 0.0529251 0.0904705 0.00936621 0.0385111 0.0760855 0.0555033 -0.0433441 -0.0240096 -0.0230165 -0.0122706 0.00510144 -0.0255674 0.0205858 0.0148623 -0.0614134 -0.0352592 0.00311366 -0.00980623 0.0821001 -0.0133945 0.00294923 -0.0234819 0.0185407 -0.0519248 -0.000618272 -0.0301608 0.00616743 0.0360703 0.00464314 0.0418314 0.0116639 -0.0179379 0.04401 0.0363152 -0.031775 0.045192 -0.00660971 0.045971 0.0125468 0.0160233 0.0246894 -0.0689468 0.0158712 0.00960316 -0.0269439 -0.0523284 -0.0651016 -0.0452416 0.00130947 0.0203706 0.0148573 -0.0359745 -0.0184415 0.0861492 -0.00500176 0.0656992 0.0376232 0.00136345 -0.00435958 0.000581128 -0.0749796 -0.0253894 0.0371385 0.0142569 -0.00748183 -0.0203498 0.0122444 0.0792145 0.000961454 0.0609561 0.0694927 0.00455309 0.0495633 0.0236816 0.00648637 -0.0170003 0.0870644 -0.0119154 -0.00705709 -0.0209195 0.0579738 0.0833035 0.0627786 -0.0385248 0.0172469 0.0458058 0.0138043 -0.0670136 0.0326631 -0.0637419 0.0283081
now 0.0168057 0.0234411 0.0773185 -0.0489171 0.0270795 0.0104861 -0.0307856 -0.0119287 0.0542791 0.0266532 -0.00313846 0.0655321 -0.00659414 0.00724282 0.0235356 -0.0127426 0.0432212 -0.0415425 0.00440914 -0.0184486 -0.0217749 0.0127479 -0.00772995 0.00445819 0.0176608 -0.0213804 -0.0614388 -0.00907826 -0.010233 -0.00274367 0.0266577 0.0440793 0.0102417 -0.0401099 0.00327702 0.0100414 -0.0270483 -0.0188117 -0.0500706 -0.00802686 -0.0210256 0.057297 0.0546626 0.00115961 0.0379147 -0.00206822 0.06344 0.0409569 -0.000552452 0.0145101 -0.0624075 0.0408372 0.0221473 -0.0235636 -0.0451793 -0.0655116 0.0130926 0.00134594 0.0558886 -0.0418779 -0.0248963 0.00626027 0.0348979 0.00697406 -0.0187173 0.0363952 0.0498353 0.00267151 0.0164111 -0.0170037 -0.056065 0.0672795 -0.0222011 -0.0231709 -0.0208883 0.0778929 0.0322096 -0.0133983 0.048987 0.0567848 -0.0355308 0.0287958 -0.0418401 0.038283 0.0398585 0.00122828 -0.00618602 -0.0404785 0.040312 -0.0204334 0.061773 0.0417669 -0.00809602 -0.0684867 0.0220553 -0.00596312 -0.0190896 -0.0428989 0.00498923 0.0553423
down 0.0471538 0.0400346 0.0543336 0.00131187 0.0170012 -0.0279658 0.0144307 -0.0368248 0.0304385 -0.00988104 0.0061533 -0.0209491 0.0534622 -0.00126619 0.0371012 -0.0111998 0.0322867 0.00776003 -0.00903952 0.0274715 -0.0426016 -0.00816319 -0.0359963 -0.00603754 -0.0300291 -0.0729424 -0.0627659 0.0489248 0.00412488 0.0561823 0.0366249 0.0555157 -0.028311 -0.0606992 -0.00894765 -0.0278617 0.0638287 0.0212927 -0.0208705 0.00596222 -0.065407 0.0108445 0.0420323 -0.0121105 -0.00210673 -0.00494256 0.0497484 -0.0234373 -0.0256698 0.00502823 -0.03826 0.00599569 -0.0346461 -0.00918201 0.0870321 -0.0168116 -0.0338171 0.0642854 0.034251 0.02562 -0.0342962 0.0025068 -0.0073289 -0.0576963 0.0465767 0.0434613 0.0243802 -0.0205443 0.00956605 -0.00616966 -0.0518993 0.0437753 -0.0365419 0.000782875 0.0140802 0.0193499 0.0321587 0.00137368 0.0485737 0.0332241 -0.0190155 0.00412903 -0.0848003 -0.0104048 0.0610142 0.00845612 -0.0716007 -0.0539506 0.0240097 0.0395253 0.0334988 0.0285555 -0.0181287 -0.0589103 0.0295589 0.0370183 0.0232686 -0.0273054 -0.0536639 0.0780965
night -0.016189 0.0429302 -0.00626744 -0.0441567 0.0576724 -0.00684661 -0.0404045 -0.0238844 0.026512 -0.00952198 -0.0118684 -0.00757688 0.0184942 0.0295234 0.00849336 -0.0323944 0.0150917 -0.0166139 -0.0438308 0.046365 -0.0485441 -0.0144959 -0.0139844 0.00131113 -0.053209 0.0238521 -0.0124536 0.05403 0.00231288 0.0479383 0.0292202 0.00902066 -0.0425168 -0.0542113 -0.0200355 -0.000207246 -0.00141133 -0.0311765 -0.0173276 0.0075789 0.0222915 0.0148024 0.00232911 0.0154503 -0.00518199 0.0520274 0.0220263 0.00491249 0.0397362 0.0100358 -0.0151446 -0.0146155 -0.0407316 0.00209242 0.0120491 -0.0506579 -0.00747861 0.00712705 0.0283249 0.0316301 -0.0289653 0.00606953 0.041259 -0.0121324 -0.0208323 0.0531826 -0.0236411 -0.0344911 0.0149601 -0.0302049 0.0166437 0.00464993 -0.0207958 -0.0106384 0.0320038 -0.037967 0.0533345 -0.0386114 0.0563685 0.010877 -0.00963636 0.00882083 -0.00100075 0.0626507 -0.0316793 0.0345069 -0.0477032 -0.0544947 0.0223527 0.0138161 0.0061116 0.0613178 -0.0598106 -0.05552 0.0171587 -0.0273353 -0.0139595 -0.00481056 -0.00222735 0.0234631
them -0.00839121 0.00181353 -0.00531552 -0.0617572 0.00395307 0.0105878 -0.0367691 -0.0443575 0.023483 0.0199046 -0.00752105 0.0473854 0.000573051 0.00251777 0.0511601 0.000540471 0.0475103 -0.0249568 -0.0309797 -0.0150153 0.00997347 -0.020385 -0.0519914 -0.0659229 -0.00172915 0.00663714 0.00268721 -0.0137725 -0.011898 0.0674632 0.0604989 -0.0121596 0.0129412 -0.0052588 -0.0312317 0.0134813 -0.0154683 -0.0249463 0.0349632 -0.0600369 -0.0701502 0.0246294 -0.00947871 -0.0129882 0.00668259 0.0243249 -0.00551947 0.00699107 0.0212693 0.0373586 -0.0132842 0.0332541 -0.00835622 -0.0529418 -0.0139226 -0.00279585 -0.0140774 0.0115152 -0.00123959 -0.0310315 -0.00966859 0.00831633 0.0744043 0.0053571 0.0102821 -0.0292108 0.054715 0.0323955 0.0325135 -0.0168894 -0.00613248 -0.00127108 0.026564 -0.0181177 0.0357272 -0.0168999 -0.0167184 0.0385119 0.00937454 0.0604127 -0.0384104 0.0118507 -0.000860972 0.0343066 -0.0225797 -0.000937865 -0.0126111 -0.0465858 0.0241058 0.0563428 0.0611003 0.069357 -0.0214211 -0.0459553 0.0104187 0.0157424 -0.0506157 -0.03335 0.0316051 -0.00592731
then 0.0434368 0.00373748 0.0392318 0.0283064 0.0234303 -0.0479286 -0.0484872 -0.0641136 0.0627084 -0.0147445 -0.0045455 0.0466127 -0.0204475 0.0144764 0.0592997 -0.0597092 -0.0239169 -0.00384799 -0.0412575 0.00660136 -0.0418891 -0.0111112 -0.0340856 -0.0130124 -0.0339736 -0.00478873 -0.0593192 0.035231 0.0375316 0.0622066 0.0660151 0.00217474 0.00877623 0.0218366 -0.0161784 0.0184959 0.00301147 -0.038272 0.0141843 -0.011532 -0.0152287 0.0093808 0.00353015 -0.0324614 -0.0227267 0.00228029 -0.000543566 0.000368963 0.035874 -0.00437877 0.0195934 -0.0244697 -0.050477 -0.00858394 -0.0597147 -0.0280529 -0.0326799 0.0606448 0.00722933 -0.0679588 -0.00182199 -0.000876073 -0.00945207 -0.0487001 0.0486107 -0.00736665 0.0378535 -0.000629738 -0.0347596 0.0239319 0.00160456 -0.0259483 -0.0555101 -0.0296243 0.0382074 0.0400842 0.0144443 -0.0147326 0.00568776 0.0669268 -0.00815518 0.017182 -0.00211869 0.0560048 0.0304938 0.00106283 -0.00803732 0.0114599 0.0231628 0.0409282 0.00795381 0.0364716 -0.0569744 -0.0324614 0.00197206 -0.00699593 -0.0361089 -0.00816416 -0.0296319 0.0544159
nameless 0.0343826 0.0285913 -0.0648746 -0.0351703 -0.0679801 0.0259235 -0.00496377 -0.0274321 -0.0196197 0.0180718 0.0928892 -0.00325597 0.0874057 0.0259286 0.0485252 -0.0291505 0.00247033 -0.0164588 0.0197443 -0.00398897 -0.0161239 -0.0232639 -0.0703036 0.0200758 -0.0218817 -0.0878367 -0.0235708 0.0287879 0.0635073 0.0805097 0.00176249 -0.00314832 -0.0710102 0.0222655 -0.0606437 -0.059683 0.0288568 0.00717602 -0.0158414 -0.107309 -0.0240955 0.0429751 0.0123941 0.0450952 0.0509778 0.053185 0.00330892 0.00390484 0.024701 0.0787604 0.00712893 0.00757962 -0.0863565 0.0337964 0.0346871 -0.0064042 -0.0639173 0.00876494 0.0419538 0.0730774 -0.000197716 0.00516757 0.112825 -0.0946251 -0.00768763 0.0400902 -0.0331503 -0.0245054 0.000697755 0.0387145 -0.0264547 0.0719185 0.0555047 -0.00298475 0.0114482 -0.0202178 0.0257123 0.0417623 0.0925533 0.0736297 -0.0354963 -0.00188867 -0.0521417 0.00448791 0.0696588 0.0180939 -0.00495113 -0.0763605 0.0484803 0.00253431 -0.0229042 0.0255761 0.0251874 -0.0396713 0.0751763 0.0513909 0.0281483 -0.0506933 -0.036855 0.0286881
over 0.036381 0.0184561 0.0289377 -0.0706188 -0.002224 -0.000480472 0.00498297 -0.0653109 0.0304156 -0.0274895 0.038893 0.0294132 0.0721551 -0.017263 0.0217275 -0.0568199 -0.00970681 -0.0331906 -0.0582839 0.0310028 -0.0315094 -0.036146 0.00538258 -0.013687 -0.0675818 -0.0709796 0.00465404 0.0136672 0.036625 0.0259559 0.0328285 0.0613635 -0.0094551 -0.0166113 -0.0668783 0.00139585 0.0210296 -0.0306223 0.0363083 -0.0204441 0.000537842 0.0137713 -0.00474311 -0.0409071 0.0532623 0.0432714 -0.00595712 0.044821 0.0398249 0.0413396 0.00824547 -0.0270993 -0.0666575 -0.0470671 0.0586483 -0.0950602 -0.0889502 -0.0198785 0.0250744 0.0265336 -0.0298068 -0.0130082 0.000374979 -0.0094672 0.044992 -0.0221136 0.0255084 -0.0299963 0.0365279 0.0228323 0.0211745 0.0132352 0.00847513 -0.0193852 0.033881 0.0535823 0.0270319 0.0047752 0.0740261 0.0746132 -0.0446036 -0.0177033 -0.036621 0.00397792 0.0798004 0.0406281 -0.0225303 -0.0425528 0.0622857 0.00818025 0.00187711 0.0540448 -0.0230174 -0.0112081 0.0188468 0.0486068 -0.0318951 -0.0256537 -0.0831037 0.00183085
things -0.0183188 0.064265 0.0229368 -0.0486095 0.000728358 0.00750516 -0.0224718 -0.0593447 -0.00728814 -0.00435565 -0.0166104 -0.000531605 -0.00959171 -0.000620629 0.0460999 -0.00202464 0.0111817 0.00208932 -0.0477952 0.0218696 -0.0573467 -0.0184772 -0.000310001 -0.00912034 -0.0516899 -0.0192729 -0.0581337 0.0651609 -0.00647867 0.0403857 0.0281295 0.0190181 -0.0158124 -0.0483076 -0.0519235 -0.0435308 0.0442771 -0.012199 -0.0067522 0.0117492 -0.0156382 0.0268323 0.00943644 0.00621407 -0.0050976 -0.00726665 0.0219563 0.0187319 0.0570695 0.0221274 -0.0616134 0.0125592 -0.00536314 -0.0636977 0.0266461 0.0101653 -0.0170304 0.0555978 -0.00575166 -0.05398 -0.0539824 0.0611186 0.0480604 -0.031362 0.0525117 0.0115409 0.00333023 0.00246212 0.0212422 -0.0509157 -0.0175992 0.019018 -0.031229 -0.04152 0.0426369 0.0250144 0.0245873 -0.00897455 -0.0228457 0.0218525 -0.0498458 0.0316291 0.00321167 -0.0133682 0.0338834 0.0406465 -0.026779 -0.0340087 0.00165537 0.00744992 -0.0112506 0.00356718 -0.00791507 -0.0642583 0.0314988 0.0107457 -0.0279436 0.0212106 -0.0390359 0.00474138
even -0.0161742 0.0469277 0.0347207 -0.0255818 0.0634299 -0.0370304 -0.0557956 -0.0148581 0.0292682 -0.0258462 0.0583021 0.0454397 0.0595652 -0.0385252 0.0249374 -0.0441372 -0.0150152 0.00533489 -0.0189517 0.0239599 0.00920958 -0.0204968 0.00900828 -0.0237802 -0.0270177 -0.00608207 -0.0352825 0.0532126 0.0568343 0.0665448 -0.0319193 0.00165496 -0.0348565 0.0131145 -0.0319766 -0.0267189 0.0390644 -0.0354758 0.0156806 -0.0376008 -0.0110202 0.0229923 0.0488269 -0.0401541 -0.00220211 0.0170081 0.0297451 0.0411903 -0.0035251 -0.00207421 -0.00566913 -0.0238899 -0.0355826 -0.027008 0.0214211 0.00627706 0.0107936 -0.0206923 0.0741891 0.00734215 -0.0516992 -0.0131745 0.0439197 -0.0377704 0.0201901 -0.0107927 -0.0302881 -0.0320566 -0.0129791 -0.000406818 -0.0413706 0.0456921 0.00789428 0.0165866 -0.00102283 0.0224712 0.00399846 0.00108645 0.0635096 0.0513078 -0.0748262 -0.00242057 0.018182 -0.0150479 0.0384619 0.00579126 -0.0141062 -0.0223783 0.0749282 0.0276973 0.0351818 0.0487533 -0.0429449 0.0262608 -0.0221146 0.0432799 0.00595772 -0.0636289 -0.0676178 0.0252351
came 0.0338971 0.0215599 0.00288409 -0.0491857 0.0309301 -0.0517772 -0.000435926 -0.0367248 0.0226784 0.0251084 0.0122501 0.0332512 0.0104798 -0.0192192 0.00813041 -0.010714 0.0231005 -0.0405983 0.0188275 -0.00153717 0.0237278 0.00668103 -0.0500475 -0.041112 -0.0400544 -0.0500377 -0.0208223 -0.0135765 -0.00890347 0.0363841 0.0577482 -0.0234223 0.0025291 -0.0371167 -0.0558895 -0.0238791 0.000679615 0.0276644 -0.0148992 -0.0442384 -0.0184047 -0.0310207 0.0348739 -0.00782414 0.025325 0.0527329 -0.00890339 0.0766285 0.0545411 -0.00512077 0.0169085 -0.0112513 -0.0188694 -0.0421825 0.00416493 -0.062156 0.00905748 -0.00234142 0.0423933 0.0157945 -0.0349161 0.0454749 0.0531174 -0.0550826 0.0555493 -0.0404193 0.00316864 -0.0321468 0.00165911 0.0199249 0.0143941 0.0276194 -0.0641536 -0.00560634 -0.0218861 0.0757335 -0.0268225 0.0055018 -0.020661 0.0350868 0.0305809 0.0418902 -0.0416783 0.0588173 0.0143912 0.0511179 -0.0425138 -0.0311289 0.0212808 0.0637906 -0.00573455 0.00636497 -0.0127214 0.0170405 -0.00770493 0.0299129 -0.0388701 -0.0180477 0.023509 0.000138051
away -0.00894739 0.0159148 0.0360607 -0.041638 0.0122286 0.00756037 0.00193917 -0.0476674 0.0226211 0.0342192 0.0539725 0.0288879 0.0660282 0.059708 0.0117119 -0.0778146 0.0476004 -0.0100201 -0.00170588 0.0642667 -0.064472 -0.00115803 0.0110973 -0.0439539 -0.070493 -0.0546065 -0.0208272 0.066407 -0.00596502 0.0341597 0.00744203 0.0734364 -0.0330127 -0.00975656 -0.0698013 -0.0254172 0.0605153 0.000326228 0.053446 -0.0232377 -0.0565629 0.0270435 -0.00103538 0.00668844 0.0372186 -0.000748906 0.0491561 -0.025036 -0.0220008 0.0530509 -0.0614976 0.0494769 -0.00218551 -0.0310376 -0.0213938 -0.0232681 -0.0728012 0.0700296 -0.00301114 -0.0352923 0.000429138 0.045294 -0.00012897 0.00147961 0.00181287 0.0598774 0.0206528 -0.0630618 -0.00658401 -0.0299784 0.00770127 -0.0091344 0.00436303 -0.000726497 -0.00679822 0.0396027 0.0397806 -0.0164335 0.0601504 -0.00269028 -0.0108245 0.0330033 -0.0258884 0.0371409 0.0705512 -0.00192191 -0.031463 -0.0527915 0.0157799 0.0238092 0.0441356 0.0357142 -0.0123155 -0.0167507 -0.00340244 -0.000660576 0.0151229 -0.0125619 -0.0208155 0.0159664
time 0.00168776 0.0355099 0.0131995 -0.00414813 0.0575352 -0.0352606 -0.0381451 -0.0206856 0.0567936 0.00283421 0.0362676 -0.000270183 -0.00494936 -0.0340912 0.0336735 -0.0301623 0.0302856 -0.0246383 -0.0194294 0.00373148 -0.000769994 -0.0427633 0.0180431 -0.0281436 -0.064685 0.00485179 -0.00557852 0.0581288 0.0177891 0.0532914 -0.00302558 -0.00724889 0.00716097 -0.0626064 0.00857381 -0.0160359 0.0544302 -0.0168926 0.0397041 -0.00631422 -0.0387766 0.0483255 -0.00234272 -0.00437243 0.027995 0.0302851 -0.0172297 0.0286379 0.000306673 0.0524952 -0.00661382 0.0114087 -0.0632205 -0.00401911 0.0159901 -0.0186024 -0.0666838 0.0426725 -0.00195115 0.0411655 -0.0424742 0.0212815 0.0540033 0.00931018 0.0565608 -0.00182582 0.0161885 -0.00262688 0.0280374 -0.0404707 0.00895557 0.0363524 -0.0533969 0.00200266 0.0331212 0.0375315 0.00330041 0.0260389 -0.0114069 -0.0139235 0.0118017 -0.0117415 0.00239709 -0.0180471 0.0174003 0.0614586 -0.0583117 0.00124661 0.0731675 0.00876705 0.0285397 -0.00772502 -0.0283484 0.0169453 0.0110999 -0.0154497 0.0159755 -0.0215132 -0.0520808 0.0629803
than 0.0594315 0.0746344 -0.0121366 -0.0405131 0.0183528 -0.0115251 -0.0236904 -0.0387586 0.061014 0.0221562 0.0299728 0.00322581 -0.000493649 0.0114387 0.0469035 -0.0492352 -0.0214885 -0.0111838 -0.0506996 0.0526896 -0.0670075 -0.0393491 0.00858615 0.00128569 -0.0340318 -0.0761138 0.00102544 0.0216579 -0.00897036 0.0691489 -0.0221841 0.0422862 -0.0344097 0.011379 -0.0204924 -0.009975 -0.0328422 -0.0447208 -0.00022338 -0.0385762 0.0184516 0.046531 0.0498116 -0.0724607 -0.0252892 0.0339353 0.0367242 -0.0160462 0.00186534 -0.00137289 0.0217915 -0.011108 0.00264259 0.000617824 -0.0293904 -0.00871785 -0.0191798 -0.00749178 0.0322328 -0.0205445 -0.0382939 0.0146244 0.0539788 -0.0396355 0.0634065 0.0168638 -0.0226811 -0.0343782 -0.00833957 -0.00738515 -0.0644384 0.0457603 0.0328053 -0.0100276 0.0659192 0.0647444 -0.00139101 0.00328211 0.0240875 0.0703251 -0.00443606 -0.00684312 -0.010384 0.0238861 -0.0259726 0.0276858 -0.091579 -0.0741117 0.0204268 0.00622405 0.0527023 0.0220848 -0.00186433 0.0164144 0.0236171 0.0523345 -0.0238191 -0.072819 0.00104804 0.0403244
would 0.0474604 0.00407166 0.0245912 0.0083142 0.0567635 -0.00185735 -0.0596704 -0.0247988 0.0687333 0.0603316 0.00742114 -0.000359545 0.0474819 0.0180096 -0.0140413 -0.0116891 0.0296022 0.00983462 -0.053974 0.0318104 -0.0160984 0.00509415 0.0359061 0.0168065 -0.0611828 0.0218095 -0.0472472 -0.0150458 0.0301099 0.0128191 0.0516804 0.0312591 0.0085154 -0.0345998 -0.0303581 0.0115845 0.0315797 -0.0494253 -0.00831851 -0.0261273 -0.0733665 0.0101173 -0.0115688 0.00072957 -0.0164421 0.0422439 0.0171946 0.04813 0.0273626 0.0299679 0.00539622 0.0159135 -0.0152113 -0.0505586 -0.0430748 -0.012885 0.0252347 0.0292755 0.0326045 -0.0330019 -0.0633537 0.0391601 -0.0304134 0.00936434 0.0299212 -0.053918 0.0475681 0.00988795 0.000570771 0.015003 -0.044685 0.00935147 -0.0363865 -0.0462805 -0.00349157 0.0666133 0.00475438 0.006576 -0.00845417 0.0428382 0.0279377 -0.014987 -0.018049 0.0331236 -0.035242 0.0515571 -0.0323394 -0.0670828 0.0621334 0.00215232 0.0557707 0.0178976 0.00908481 -0.0502013 0.044844 0.0396805 -0.0564053 0.0117354 -0.00705843 0.00322179
because -0.00328286 0.0018421 0.0421846 0.0167858 0.0172559 -0.0426213 -0.0368365 -0.0428124 0.0699254 0.0618677 0.0361578 0.017563 0.00492125 0.0630335 0.0409305 0.018616 -0.0216005 -0.0227288 -0.0344174 -0.0051554 -0.0256244 -0.0141363 -0.022393 -0.0141158 -0.04355 -0.0305356 -0.0411332 0.0247096 0.0411815 -0.0195113 -0.000915912 0.0159821 0.0287887 -0.0399928 -0.010146 -0.037485 0.008904 -0.0220487 0.033401 0.00816093 0.00794476 0.00236057 0.0403086 -0.0218533 -0.0163414 -0.0322222 0.0124902 -0.00374383 -0.00993919 0.0176997 -0.0114137 -0.0156138 0.000552173 -0.0796046 0.000309212 0.0168626 0.00787942 -0.00470389 0.0221187 -0.0441839 -0.0544705 0.0414843 0.05668 -0.0198465 -0.0111062 -0.033351 0.0702655 0.0372401 -0.0139185 -0.0292883 -0.00856396 -0.0023351 0.00206181 -0.0602542 0.0261415 -0.00930336 0.0235225 -0.00800193 -0.0275927 0.00464251 0.0395838 0.0397745 -0.0332041 0.0118152 0.0470693 0.048561 -0.0628911 0.0230181 0.0402222 0.0258113 0.0721675 0.00395297 -0.0283889 0.0141503 0.0120325 0.0090786 -0.066599 -0.0499108 -0.00423882 0.0371978
ammi -0.0113364 0.0124831 0.0243297 -0.0369406 0.0130226 -0.0521748 0.000625815 -0.0070693 0.0364863 -0.00854442 0.0338188 0.0138409 0.0571054 -0.00430918 0.0583794 -0.0193211 0.0141397 0.00310335 -0.0590059 0.0380438 -0.0368618 -0.0524002 -0.0488036 -0.0390691 -0.0104478 -0.0170232 -0.00974543 -0.0122873 -0.0147232 0.0351589 0.00290311 -0.00649797 0.0248626 -0.0506819 -0.0336802 -0.00796729 0.0430817 -0.00247852 -0.0084335 -0.00262832 -0.051059 0.0525606 0.0668225 -0.0144752 0.0100561 0.0398015 0.0381643 0.0171826 -0.0183989 0.0319826 -0.0350742 0.0324166 -0.036551 -0.0548334 -0.0215601 -0.0647873 -0.0141881 0.0514073 0.015163 -0.0754403 -0.023817 -0.0105816 -0.0275232 0.00749598 -0.00664152 0.0356628 0.0425962 -0.0450779 0.059677 0.0053365 -0.0072447 0.0285909 -0.0462134 -0.0620852 0.0152147 0.0526815 -0.0163457 0.00116759 0.00286248 0.0255405 -0.0118717 0.00332377 -0.0417421 0.00290858 0.00802418 0.0525082 -0.0048131 -0.038208 0.0139327 0.0395923 0.071727 0.023566 -0.0469085 -0.0438391 0.0170348 0.0031511 0.00750085 0.0247205 -0.0405167 0.0312091
made -0.00950993 0.0528577 0.044679 -0.00350948 0.00614641 -0.0159502 0.0253288 -0.00100509 0.0430607 -0.00566672 0.0428105 0.0417672 0.0239343 -0.00032375 0.0403467 -0.0112053 -0.0067633 -0.0272853 -0.0596109 0.00858249 0.00227981 5.71509e-05 -0.0134796 -0.0118113 0.00691074 -0.053212 -0.0774283 -0.0131879 0.0128379 0.0200193 0.0649804 0.0400508 0.00822826 -0.0314728 -0.0320029 0.0112664 0.00314721 -0.0581935 0.00828789 0.0228451 -0.0538871 0.0606002 0.0279095 -0.03717 -0.027536 0.0542268 0.0449111 -0.0149107 0.00927912 -0.0139207 -0.0269144 -0.0101771 -0.0372095 -0.0352418 -0.039088 -0.00432096 -0.0474355 0.0555277 0.0141644 0.0048242 0.0280508 0.0407505 0.0515197 -0.0158909 0.0505224 -0.00103715 0.0125408 -0.050842 -0.0159899 -0.0225684 -0.0491579 -0.000386612 -0.0233264 -0.0683549 0.0193551 0.0606399 0.0416998 -0.0220022 0.0235465 0.0241289 -0.00775181 -0.00523153 -0.0251641 0.0554682 0.0125149 0.0514756 0.00270591 -0.0344236 0.0284785 0.0560494 0.0260368 0.0540023 -0.0410826 -0.0252442 -0.0202059 0.0584058 -0.0065463 0.00160652 -0.0330118 -0.0212129
must 0.0351015 0.0267246 0.0177083 0.0163735 0.0240227 -0.0832046 0.0118682 -0.0436319 0.0440293 -0.0079656 0.048109 -0.0248752 0.00640114 -0.0202724 0.0240269 0.00796045 -0.00996542 -0.0547561 -0.040476 -0.00832322 -0.0569085 -0.0626623 0.00923201 0.0295404 -0.0769485 0.0213647 0.0168053 0.0141983 -0.00169136 -0.00386371 0.0452779 0.0108359 0.0323219 -0.070034 0.00430198 -0.0172897 -0.0141375 -0.027892 0.00484083 -0.00343564 0.00268992 0.0332483 0.0436422 -0.0310124 0.0339104 0.0573741 0.0380049 0.00988287 0.0409923 0.01835 -0.059706 0.0442427 0.0127721 0.0106191 -0.047741 -0.0765368 0.00447428 0.0060281 0.0465388 -0.0205687 -0.00138792 -0.0271536 0.0166327 -0.0164738 0.0392193 -0.0481786 0.0456948 -0.0615663 0.0406822 0.012251 0.0109074 -0.0260093 -0.050249 -0.063647 0.0354362 0.0816027 0.0133156 0.0185584 -0.0260019 0.0491315 0.0179557 0.0125342 -0.0107357 0.0242799 0.0466597 0.0328599 -0.0388059 -0.0276224 0.0546856 0.0228632 -0.0136111 -0.00405512 -0.051071 0.0168212 0.0585623 0.024108 -0.0295017 -0.0586061 -0.0291948 0.0728948
is -0.0141256 0.0425947 0.00170342 -0.0649163 0.00410417 -0.0119482 0.00131403 -0.0278357 0.038806 0.0194034 0.00264678 -0.033902 0.022084 0.0101555 -0.0408322 -0.0352589 -0.00342674 -0.011282 -0.00363983 0.0490771 -0.024647 -0.0363029 0.0442895 -0.0430148 -0.0549262 0.0125491 -0.0290753 -0.0239408 0.018697 0.0136615 0.0317599 -0.0173115 0.0208604 0.00277539 -0.0271523 0.0437461 -0.012777 -0.0595107 0.0636963 0.0122291 -0.0303203 0.0503527 0.0370241 -0.0591114 -0.0182145 0.0329083 -0.00297746 0.00249546 0.0216053 0.0204179 0.0193337 -0.0106678 -0.00420703 -0.0456567 0.00397681 -0.0214637 -0.00288433 0.0181577 0.0399003 -0.0150481 -0.0307529 -0.00138603 0.00347338 0.00475623 0.0348607 0.0036682 -0.0344836 0.00595408 0.0395911 -0.00140206 -0.00375038 0.0411745 -0.0246906 -0.0661712 0.0202974 0.018628 0.00735339 0.0236509 -0.00109479 0.019627 -0.0492599 0.0337823 -0.0305495 0.0137488 -0.00149978 0.0435905 -0.0855708 -0.0492986 0.0502769 0.0719486 -0.00779809 0.0360415 -0.013918 -0.0359527 0.0612438 0.0149213 0.0321596 0.00334212 -0.0460931 0.0278607
seen 0.0356727 0.00455124 0.00425816 0.0391387 0.0195458 -0.0291981 -0.0476294 0.0198284 0.042464 0.0166909 -0.012652 -0.0135864 0.0346959 0.0306288 0.0142665 0.0373387 0.00998658 -0.0498766 -0.0655138 -0.0223786 -0.0577946 -0.0469081 -0.036468 -0.0154569 0.0316378 -0.0407983 -0.0483342 0.0402055 0.0112852 -0.00237366 0.087088 -0.0316257 -0.00688346 -0.0619921 0.0117217 -0.02901 -0.00072969 0.00763499 -0.039218 0.0295446 -0.0429096 -0.0255491 0.0422635 -0.0750455 0.00649976 0.0265389 -0.0108744 0.0698045 0.0153862 0.0441588 -0.0343789 -0.0267642 -0.00660962 -0.0103314 -0.0430085 -0.00530517 0.00231008 0.0551035 0.0378911 -0.00321855 -0.0522888 0.00558273 0.0428144 -0.0196834 -0.00587144 -0.045522 -0.0192332 0.0226641 -0.0447998 -0.014662 0.00739222 -0.0273247 -0.00721398 -0.0376523 0.00785719 0.0176942 -0.0359219 -0.0120122 -0.0492617 0.00366972 0.0170832 0.0421688 0.0360652 0.065472 -0.00605819 -0.016497 -0.0492595 -0.0384386 0.0771642 0.009243 0.036449 0.0479278 -0.0490826 0.0133267 0.0192848 -0.0334925 0.00180305 -0.0298208 -0.0465476 -0.0109295
wind -0.00856727 0.0361078 -0.00692757 -0.0278485 0.0148947 0.0130141 -0.0625088 -0.0369675 0.0230404 -0.0230285 0.0230242 0.00200387 -0.00259814 -0.0071484 -0.0270948 -0.0234487 0.0520515 0.0267266 -0.0175474 0.00162631 -0.0391799 -0.0488356 -0.0512575 -0.00430423 -0.0528303 -0.0472909 0.00966174 -0.00804315 -0.0076127 0.0582732 0.0150061 0.0279201 -0.0179085 -0.0548806 -0.0217054 0.0245167 0.0443331 -0.0195932 0.0298836 -0.0131437 0.0135768 0.066433 -0.0199821 -0.0586208 0.0445036 0.0543144 0.0267947 0.0518483 0.0257705 0.0267461 0.0165094 -0.00235191 -0.0497199 -0.0020005 0.0175698 -0.046003 0.00874846 0.0286914 0.0305935 0.00516982 -0.0425813 0.0284846 0.0180879 -0.0525936 0.00474164 0.0234133 -0.0297416 -0.00207365 0.0105752 0.00147712 -0.0313127 0.0268652 0.0110999 -0.00140685 0.00429002 0.063928 0.0223986 -0.0101654 0.0220174 0.0189071 -0.00430978 0.00650198 -0.0110955 0.057223 0.0253589 0.0431094 -0.0506433 -0.0306316 0.0707981 -0.0270882 -0.0159405 0.0221006 0.0210378 -0.0062914 -0.0269927 0.04385 0.00363744 -0.0250106 -0.0433629 0.0130732
these -0.00214741 0.032507 0.0160299 -0.0268131 0.0111533 -0.0268509 -0.0254096 -0.0224141 0.0535247 0.0448647 0.0277195 0.0595124 0.0347753 0.0423219 0.0587544 -0.00956805 -0.038506 -0.0687878 -0.00998922 -0.00224699 -0.0147957 -0.0560164 0.0119019 -0.0825126 -0.032836 0.00357749 -0.000763992 0.0510081 0.0530726 0.00968278 0.0156918 -0.0170569 -0.0066537 -0.0130517 -0.00250301 -0.0591844 0.0345901 -0.00187192 0.0474639 -0.0518123 0.000842378 0.00365767 0.048857 -0.000911165 -0.0115172 0.059351 0.0436028 0.0513595 0.0200794 0.0103371 -0.0754707 0.00358183 -0.0256877 -0.0555175 -0.00555118 0.00852383 -0.0469948 0.00217561 -0.0179937 -0.00854111 -0.0731175 0.0876351 -0.00530178 0.00191166 0.01844 0.024394 0.0623894 -0.00401028 0.0665538 -0.0743826 -0.00865021 0.050021 -0.0038317 -0.00691052 0.00907333 0.0336258 0.022102 -0.00791415 0.0329799 0.0278801 -0.031225 0.00716089 -0.0147794 0.0566988 0.0668116 0.0643657 0.00333017 -0.0205934 0.0326395 0.0698772 0.0240311 0.0252914 -0.0444284 -0.0572333 0.0483114 0.00672924 -0.0767929 0.00336167 -0.0539721 0.0193492
nothing 0.0562585 0.0162424 0.0679515 -0.0257527 0.043803 0.0283981 -0.00348864 0.0406274 -0.00774752 0.0665115 -0.0314914 0.0485771 0.0204899 0.0126021 0.0221217 0.046529 0.00513551 -0.0574697 0.00778585 -0.0372824 -0.0669423 -0.034361 -0.0411707 -0.0512626 0.0076675 -0.0431566 -0.0113566 0.0659576 0.00817005 -0.0313393 0.0504389 -0.0376408 -0.0333852 -0.0313145 -0.0266143 -0.0526969 0.0416123 -0.0654404 0.0309985 -0.0167458 -0.0388243 0.00953671 0.056777 -0.011543 -0.0186976 0.00535843 -0.00803016 -0.00922893 0.0201306 0.05696 -0.0609887 0.0247862 -0.00654918 0.0181994 0.0220674 -0.0218436 0.0295174 0.050364 0.0128851 -0.0676118 -0.00813398 0.0134635 0.0118513 -0.0191906 0.0488988 -0.04152 0.024367 0.0102372 -0.0241832 0.00132093 -0.0434222 0.0323202 -0.0356828 0.01787 0.00382956 0.0153251 0.0390521 -0.0419638 0.0347994 0.0277999 -0.0354613 0.0200315 0.0034583 0.0426054 0.0273621 0.0418912 -0.013256 -0.037936 0.0152107 0.0268362 0.0629589 0.0266683 -0.0463658 -0.041186 0.00212775 -0.0142074 0.00247413 -0.0044151 0.019157 0.0097077
who -0.0199069 0.0420813 0.0110142 -0.048328 0.0720224 -0.0403586 -0.0530434 -0.0433298 0.0375658 0.0369723 0.027207 0.0159723 -0.0281758 0.00611633 0.0191438 0.00819929 0.0621277 -0.0357969 -0.00898502 0.0143924 -0.062037 -0.0420863 -0.00300811 -0.0547935 -0.0210292 0.0207189 -0.0421589 0.0450299 0.0246886 -0.00618822 0.0165512 0.0519728 -0.0479642 0.00630412 -0.0321999 -0.00523861 0.0279381 -0.0251781 -0.0154895 -0.0300798 -0.0135128 0.0263744 0.0150578 -0.018415 -0.0206407 0.0542293 -0.0184714 0.00948322 0.0155422 0.0450567 -0.0171373 -0.00518477 0.0198177 -0.00222102 0.0236836 -0.0351331 0.00439465 0.0100811 0.0183307 0.0347382 -0.00952669 -0.0218086 -0.0101931 -0.038024 0.0321634 0.00808751 0.0378658 0.0254475 -0.0166374 -0.0492971 -0.0388813 0.0371413 -0.0479157 -0.0571451 0.0456619 -0.0129283 0.0547359 -0.017533 0.0454776 0.0409814 -0.0372879 0.0585756 -0.0113269 0.0411063 0.0486827 0.0382166 -0.0155568 -0.055783 0.0296631 0.0562677 0.0148019 0.0190623 -0.0430204 0.01287 0.0283961 0.0500246 -0.00107089 -0.0401559 0.0148734 0.0454658
new 0.0360548 0.00753055 0.0271629 -0.0418484 -0.020167 -0.068427 0.0098669 -0.0448516 -0.0139517 0.0541896 0.0173217 -0.0143971 0.0270734 0.0248794 -0.00451599 -0.055919 0.0409178 -0.0460645 -0.00297093 0.00566952 -0.0493155 -0.0546487 -0.0288473 0.0138383 -0.0174351 -0.0598968 -0.0381806 0.0506112 0.0555086 0.0644044 -0.0132569 0.005153 -0.0239915 -0.00267178 -0.0504062 -0.0503746 0.0506159 -0.0160173 -0.0409227 -0.0178768 -0.00389354 0.0208934 0.00660641 -0.0178144 0.0714887 0.019852 0.0177613 0.00925487 0.0540157 0.00931818 -0.0100756 0.029984 -0.0069621 0.00167548 0.0146087 -0.0370508 0.0174676 0.0573689 0.0477959 -0.0186642 0.0160163 0.0388839 0.00394698 -0.0346993 0.00451285 -0.0499129 0.00772247 0.0174353 0.0381432 -0.0257433 -0.0456537 -0.0120863 0.026205 0.0078913 0.0430937 -0.0125385 0.0043332 -0.0522376 0.00755283 0.0297777 -0.00943428 -0.00499377 0.00330926 -0.010185 0.0296257 0.0244094 -0.0219751 -0.0225373 -0.00449635 0.0249659 0.0301138 0.0306032 -0.02707 -0.012686 0.0350272 0.0484501 -0.032646 -0.0067008 0.0130174 -0.00278678
ancient 0.0145432 0.0184503 0.0119697 -0.0002159 0.0199604 -0.0182313 -0.0384049 -0.0384421 0.0229682 -0.0190991 0.067083 0.00462414 0.067758 0.0129204 0.00954773 -0.0142613 0.00584099 0.00835756 0.00547189 0.00328397 -0.0505882 0.0142289 -0.0231604 0.00421023 -0.0647415 -0.0662199 -0.0666814 0.0645962 0.0276014 0.0520755 -0.00732794 0.0729612 -0.0315548 -0.0755117 -0.0283524 -0.0595448 0.060884 -0.0140405 0.00500806 -0.040109 0.021295 0.0170216 0.017304 -0.0295501 0.0293233 0.0144989 0.0172388 0.0361248 0.0599943 0.0370906 0.0155173 0.0234087 -0.0711349 0.0187978 0.0631017 0.00639294 -0.0505364 -0.00226763 0.0516859 -0.0061711 -0.0541345 -0.000997395 0.066615 -0.00443559 0.0880602 0.0616804 0.0520759 -0.0136207 0.0675124 -0.0317881 -0.0108418 0.0347843 0.0554466 -0.0275647 -0.00861013 -0.00531087 0.00995777 -0.0403264 0.0167227 0.0347189 -0.0517656 -0.0130125 -0.00649636 0.030067 0.000393365 0.000260922 0.00647795 -0.0011579 -0.0294234 0.017047 -0.00522836 -0.0211204 0.00221557 -0.00928956 0.0683185 0.0263231 -0.0648072 0.00276009 -0.0753863 0.0126421
low 0.0143757 0.0273478 0.0691143 -0.0381456 -0.0109398 0.0111122 -0.036407 -0.0434582 0.0288633 -0.00149443 -0.0157101 0.0475418 0.0453559 0.0152028 0.0021674 -0.0337064 -0.00871027 -0.0187032 -0.0330772 -0.00494015 -0.0638026 -0.0462677 0.023676 0.0134471 0.00387644 0.0139052 -0.0160628 0.0338317 0.0360827 -0.0116042 0.0340447 0.0130349 -0.0559125 -0.0354113 -0.0123291 -0.017543 0.044097 -0.0567419 0.0356836 -0.0196775 0.0248103 0.00242237 0.0150804 -0.0179917 0.0414413 0.0386214 0.0241251 0.0226185 0.04294 0.0425558 -0.0466981 0.0233188 -0.077034 -0.0455812 -0.0397865 -0.0413862 -0.0147841 0.044197 0.0379575 0.0399872 0.0387795 0.0180351 0.0148919 0.00454901 0.0429817 -0.0212563 0.0574252 -0.0196889 0.0647934 0.0317467 0.00115439 0.0506517 -0.022305 -0.045909 0.016797 0.0232814 0.0202158 -0.0262783 0.0230885 0.0622912 -0.00228753 0.0307444 0.00890496 0.00888756 0.0703871 0.0178373 -0.0253804 -0.0360902 0.0478158 0.0389948 -0.0247334 -0.00159254 0.00732244 -0.0555921 0.00367648 0.00253905 -0.0351153 -0.060061 -0.0213209 0.0169193
such 0.0291482 0.0232832 0.0408028 -0.0135413 -0.00241315 -0.0581392 -0.00767432 -0.0122518 -0.00210167 0.0253861 -0.00971003 0.0543456 0.0265387 0.0453912 0.0217083 -0.0566265 -0.00388404 -0.0528147 -0.0227093 0.0349611 -0.0205873 0.0200562 0.0127113 -0.0595164 -0.00783902 -0.0117499 -0.00550275 0.00431363 0.0114423 0.000986297 0.0361564 0.0340662 -0.0265162 -0.0581346 0.0185315 -0.0152327 -0.028658 -0.0403229 0.0352669 0.0157568 -0.0482851 -0.0177795 0.0285846 -0.0382736 0.0384757 0.0255043 -0.00683572 0.0313936 0.0651618 0.00421328 0.0201453 -0.00498208 -0.0264802 -0.0381637 -0.0643296 -0.052141 -0.00454153 -0.0122293 0.0243958 -0.0481824 0.0249841 0.00223358 0.0241262 -0.028936 0.0421987 0.0116505 0.0680457 -0.0341471 0.0174014 0.0250955 -0.0398171 0.0546914 0.0146615 -0.0435715 -0.0147085 0.0187378 0.0163213 -0.0182509 0.0501791 0.0288142 -0.0119849 0.0135019 -0.061738 0.0168721 0.0246599 0.00684933 -0.0421746 -0.0333975 -0.00724557 0.0489182 0.0560499 0.0412512 -0.0533839 -0.0448427 0.00580824 0.056759 -0.0728295 -0.0176806 0.029084 -0.035315
still -0.0173901 0.0359291 -0.00106881 -0.0157415 0.0164354 -0.0336173 -0.00499851 -0.0271554 0.0224083 0.0221326 0.0341562 0.00314586 0.0120825 0.047375 0.0568499 -0.00438029 0.0602201 0.00574854 -0.0535174 -0.00901778 -0.0265295 -0.00343295 -0.0696233 -0.0069176 -0.0194732 -0.0558774 0.0202548 0.036726 0.0709748 0.00450513 0.0418464 0.00742742 -0.0445014 -0.00776837 -0.022354 -0.0413504 0.0389211 -0.0227003 0.0377267 0.00879778 0.0235642 0.0307499 -0.0060983 -0.0120575 0.0428739 0.0582319 0.00509167 0.0607348 0.0550364 0.048123 -0.00386543 -0.0131451 -0.0315395 -0.0320131 -0.0198187 -0.0153127 0.00133634 -0.0101359 0.0442005 -0.042486 0.0387116 0.00620396 0.0348232 -0.0367749 0.0530249 -0.0100926 0.0498067 0.0344329 -0.00777206 0.00431608 -0.0537306 0.0393432 -0.0242178 -0.0350994 0.0479204 0.0539505 0.0461164 -0.0223756 0.000437298 0.068598 0.0143567 -0.00335602 -0.0207892 -0.0103467 0.0630214 0.00179015 -0.0641252 -0.0272669 0.06076 0.0502661 0.0639265 0.0440887 -0.0185229 -0.0377051 0.0281249 -0.00599804 0.0157894 -0.0214264 -0.0238051 0.0487058
